-0.0439783	-0.01221	0.0349166	-0.01642	-0.0236588	0.0164363	-0.0224765	0.00798493	0.00733305	-0.00751592	-0.0157522	0.0181682	0.00670628	-0.0275052	-0.0361212	0.0497675	0.0191666	0.0102657	0.00388505	-0.0392841	0.0111655	-0.0466564	-0.0144416	0.0185248	-0.0200436	-0.0496741	0.0125726	-0.0470045	0.0357496	-0.00220662	0.0285487	-0.0195997
0.600281	0.667428	-0.472885	0.735608	0.558837	0.663566	-0.566399	0.660138	0.426743	0.774061	-0.788754	0.924893	0.706665	-0.537424	-0.626769	0.65051	-0.642281	0.530242	-0.636146	-0.55415	-0.766293	-0.709879	0.591022	0.693522	0.644311	0.746948	-0.645841	0.647409	-0.555779	-0.581605	0.530923	0.685353
0.703748	0.67381	-0.758001	0.730118	0.543798	0.680184	-0.637387	0.66184	0.634656	0.810621	-0.757862	0.875303	0.67954	-0.561492	-0.570556	0.67093	-0.575104	0.687834	-0.67973	-0.522441	-0.613125	-0.708281	0.601912	0.527859	0.618706	0.649107	-0.614039	0.522015	-0.571748	-0.63046	0.588449	0.538937
0.728463	0.567939	-0.688628	0.605143	0.505061	0.633496	-0.669356	0.568596	0.533191	0.619167	-0.723737	0.751131	0.704737	-0.68064	-0.612964	0.654319	-0.692513	0.690831	-0.643272	-0.792565	-0.746027	-0.813499	0.52697	0.782662	0.724332	0.713532	-0.736077	0.547667	-0.601505	-0.715611	0.502107	0.559958
0.630797	0.55424	-0.699447	0.667546	0.719976	0.565229	-0.598263	0.587314	0.643809	0.520991	-0.529823	0.744755	0.682782	-0.577522	-0.669968	0.665353	-0.64394	0.629421	-0.688312	-0.662243	-0.822744	-0.59909	0.666685	0.656023	0.68237	0.577385	-0.549639	0.607534	-0.67751	-0.601968	0.558234	0.560314
0.685761	0.609087	-0.62163	0.694499	0.742381	0.604445	-0.633783	0.55939	0.721296	0.722981	-0.714754	0.892769	0.645884	-0.668979	-0.579208	0.580018	-0.695693	0.533068	-0.564033	-0.52803	-0.724094	-0.676693	0.568344	0.65669	0.558892	0.616701	-0.562685	0.649234	-0.636275	-0.549523	0.573926	0.66915
0.680251	0.634231	-0.468436	0.733741	0.66777	0.640395	-0.634751	0.70895	0.683356	0.620112	-0.640417	0.280989	0.588402	-0.672192	-0.707376	0.612061	-0.693739	0.690881	-0.709736	-0.641455	-0.494245	-0.676687	0.678912	0.65651	0.741966	0.757654	-0.681139	0.672895	-0.592492	-0.652878	0.688955	0.572145
0.653221	0.569753	-0.501516	0.520804	0.732871	0.526105	-0.640401	0.690246	0.706178	0.673831	-0.615789	0.99113	0.517048	-0.647226	-0.570665	0.57663	-0.564856	0.594078	-0.644803	-0.639709	-0.665881	-0.592232	0.707227	0.613558	0.675357	0.701864	-0.529072	0.609626	-0.694541	-0.662819	0.703442	0.543334
0.511189	0.645454	-0.648252	0.732541	0.855174	0.631565	-0.669919	0.768885	0.916306	0.11658	-0.950083	0.164573	0.518532	-0.72627	-0.824313	0.748887	-0.732835	0.742238	-0.668901	-0.723271	0.253736	-0.516381	0.706367	0.683572	0.528504	0.6131	-0.88272	0.832825	-0.549974	-0.57427	0.515262	0.717062
0.479322	0.801536	-0.892577	0.143487	0.407217	0.80499	-0.814199	0.831569	0.826747	0.840925	0.0841779	0.196146	0.202616	-0.628223	-0.807952	0.780902	-0.795527	0.645524	-0.636774	-0.763565	0.017653	-0.79122	0.737313	0.620384	0.43204	0.536615	-0.748408	0.682741	-0.615943	-0.612206	0.811303	0.732512
0.653467	0.587868	-0.619809	0.58849	0.654413	0.616685	-0.556182	0.639914	0.754843	0.816436	-0.687882	0.875516	0.597587	-0.593116	-0.620414	0.604449	-0.562587	0.575226	-0.598642	-0.593836	-0.88056	-0.727325	0.584915	0.645283	0.685321	0.51439	-0.595541	0.672279	-0.641127	-0.608512	0.65699	0.595088
0.567609	0.608917	-0.622822	0.649214	0.764614	0.660288	-0.573778	0.507743	0.605765	0.844211	-0.462953	0.496949	0.713471	-0.528705	-0.647842	0.6381	-0.533433	0.647363	-0.649778	-0.632232	-0.791897	-0.688823	0.547019	0.497834	0.666851	0.691712	-0.639692	0.714755	-0.645892	-0.55651	0.649591	0.678506
0.684381	0.602534	-0.731485	0.691643	0.768308	0.522622	-0.538885	0.588539	0.691515	0.736856	-0.468689	0.566079	0.661264	-0.613169	-0.606424	0.682822	-0.591198	0.620654	-0.639759	-0.509571	-0.582025	-0.719639	0.610089	0.601049	0.585715	0.707656	-0.524388	0.687677	-0.675895	-0.683688	0.652623	0.6413
0.579181	0.651635	-0.735367	0.601029	0.717144	0.680902	-0.64016	0.589967	0.738412	0.780456	-0.644942	0.50404	0.695154	-0.661915	-0.620808	0.523171	-0.627668	0.5203	-0.646381	-0.564835	-0.744131	-0.620988	0.545343	0.598775	0.672427	0.650932	-0.610264	0.552586	-0.645122	-0.574982	0.638354	0.614239
0.597924	0.644508	-0.738946	0.7368	0.629947	0.722864	-0.720092	0.673225	0.625307	0.702177	-0.826857	0.824969	0.667331	-0.704566	-0.539922	0.545185	-0.645099	0.665272	-0.520526	-0.578373	-0.452009	-0.5396	0.665586	0.70882	0.627621	0.598203	-0.638241	0.573148	-0.68787	-0.66767	0.53763	0.669225
0.556715	0.568535	-0.818676	0.801441	0.639503	0.68734	-0.545216	0.519406	0.596171	0.69683	-0.81628	0.376816	0.732387	-0.747146	-0.561153	0.647521	-0.570126	0.551005	-0.609577	-0.595643	-0.843863	-0.403141	0.611864	0.683651	0.6492	0.666158	-0.697653	0.544321	-0.733809	-0.677695	0.66655	0.594785
0.569806	0.608297	-0.638405	0.765291	0.752717	0.549743	-0.669345	0.529374	0.569408	0.615751	-0.515716	0.942354	0.575887	-0.697342	-0.576883	0.531829	-0.727017	0.643776	-0.539408	-0.602444	-0.719271	-0.561684	0.675075	0.541512	0.662283	0.669535	-0.615628	0.68482	-0.602262	-0.586612	0.699702	0.634958
0.5173	0.659718	-0.700636	0.435864	0.490625	0.644965	-0.684289	0.690292	0.747417	0.796921	-0.456672	0.500488	0.558669	-0.614802	-0.579413	0.665612	-0.60395	0.644515	-0.712114	-0.634928	-0.684495	-0.723909	0.649211	0.64956	0.665139	0.555834	-0.715416	0.598323	-0.621088	-0.571057	0.716862	0.700326
0.468076	0.865644	-0.620853	0.46988	0.386371	0.833087	-0.803849	0.641933	0.709272	0.730918	-0.995265	0.559778	0.627277	-0.439082	-0.864373	0.800803	-0.535051	0.811148	-0.58558	-0.853129	0.0394535	-0.540356	0.5533	0.509279	0.432381	0.569256	-0.67818	0.563461	-0.838438	-0.797644	0.712423	0.708645
0.620532	0.652617	-0.744151	0.598118	0.73263	0.512674	-0.554148	0.521908	0.577144	0.720284	-0.659692	0.844994	0.597326	-0.597484	-0.667333	0.65305	-0.702827	0.523166	-0.628333	-0.615421	-0.741559	-0.661555	0.586229	0.591068	0.526083	0.64051	-0.647855	0.672369	-0.643135	-0.552012	0.596877	0.663333
0.717666	0.560298	-0.590434	0.487833	0.524611	0.622225	-0.704651	0.697402	0.423167	0.874901	-0.8653	0.60401	0.704491	-0.54396	-0.666093	0.647562	-0.700479	0.709681	-0.658018	-0.624342	-0.76046	-0.673193	0.712082	0.614422	0.545412	0.628898	-0.735542	0.728275	-0.601179	-0.613747	0.652865	0.487986
0.646918	0.705856	-0.791867	0.670632	0.761895	0.647836	-0.694401	0.602562	0.627521	0.4511	-0.449169	0.531875	0.718018	-0.603187	-0.685647	0.560382	-0.67173	0.597352	-0.689652	-0.616051	-0.874746	-0.643404	0.672386	0.552189	0.623104	0.672809	-0.502865	0.546064	-0.519988	-0.612853	0.596928	0.576447
0.542371	0.65182	-0.955554	0.137567	0.362909	0.601291	-0.824819	0.645898	0.182979	0.00926567	-1.04216	0.893202	0.87195	-0.895611	-0.77733	0.446115	-0.530119	0.932823	-0.731276	-0.678784	-0.718872	-0.842067	0.769189	0.563846	0.890114	-0.0851994	-0.497702	0.767758	-0.80806	-0.452381	0.771689	0.724069
0.587083	0.68829	-0.729783	0.713515	0.602413	0.547821	-0.57578	0.678665	0.611493	0.778248	-0.443739	0.857403	0.559276	-0.683442	-0.526121	0.593487	-0.66629	0.616022	-0.579303	-0.68149	-0.706282	-0.633729	0.679934	0.659219	0.654286	0.559287	-0.67708	0.553111	-0.546483	-0.601313	0.6014	0.644071
0.622277	0.57837	-0.629823	0.592888	0.666088	0.566037	-0.53816	0.4976	0.701596	0.714426	-0.704051	0.829654	0.664067	-0.593735	-0.558434	0.639041	-0.627385	0.657806	-0.597606	-0.632849	-0.624579	-0.679171	0.650747	0.583374	0.6299	0.601963	-0.611794	0.623147	-0.549023	-0.634217	0.613759	0.619025
0.741064	0.71273	-0.789715	0.604497	0.544496	0.722423	-0.69922	0.64814	0.611208	0.772449	-0.662192	0.429563	0.637277	-0.58804	-0.716705	0.685161	-0.480013	0.671506	-0.559863	-0.562051	-0.546678	-0.74327	0.605505	0.646359	0.494898	0.664925	-0.516815	0.723855	-0.587578	-0.691806	0.707926	0.611116
0.535606	0.643117	-0.615754	0.725252	0.692406	0.580437	-0.550546	0.579375	0.611991	0.766347	-0.575476	0.859933	0.574958	-0.615269	-0.51096	0.580597	-0.608295	0.474096	-0.633583	-0.669084	-0.821701	-0.674307	0.6366	0.520431	0.668793	0.563766	-0.60541	0.69783	-0.659195	-0.587479	0.564885	0.620963
0.645666	0.611275	-0.319605	0.735936	0.411268	0.780481	-0.600472	0.738257	0.740327	0.748659	-0.88908	0.256602	0.698778	-0.705519	-0.598328	0.737206	-0.61661	0.589313	-0.729514	-0.602201	-0.427154	-0.550863	0.733933	0.664438	0.659253	0.786697	-0.60889	0.762431	-0.787563	-0.598842	0.622205	0.726362
0.565266	0.531894	-0.571242	0.630766	0.605071	0.658817	-0.60651	0.631589	0.579318	0.857537	-0.707003	0.661186	0.684998	-0.605404	-0.7135	0.550514	-0.672085	0.647372	-0.704497	-0.623079	-0.817245	-0.663642	0.542849	0.582737	0.626218	0.613462	-0.563103	0.648085	-0.570631	-0.531123	0.667423	0.724453
0.578539	0.630319	-0.71572	0.63938	0.621028	0.586116	-0.557033	0.629555	0.640824	0.805224	-0.722946	0.811468	0.597332	-0.656308	-0.514583	0.603066	-0.570697	0.587905	-0.559518	-0.596678	-0.77385	-0.678903	0.63398	0.516633	0.534898	0.685676	-0.544034	0.649646	-0.55539	-0.655724	0.560325	0.674914
0.637818	0.556948	-0.646486	0.720483	0.719051	0.622156	-0.596092	0.551035	0.609717	0.730273	-0.62229	0.85539	0.626606	-0.653448	-0.580493	0.557066	-0.646325	0.6008	-0.572448	-0.611574	-0.779442	-0.550363	0.576112	0.599422	0.641366	0.714477	-0.546978	0.552261	-0.551175	-0.680568	0.636227	0.678955
0.596097	0.546296	-0.595351	0.625169	0.706075	0.664384	-0.549975	0.569794	0.5936	0.82867	-0.817816	0.558397	0.65672	-0.67653	-0.647307	0.703308	-0.654793	0.494183	-0.604259	-0.572655	-0.830767	-0.687071	0.600655	0.671182	0.569581	0.67936	-0.654434	0.669883	-0.599219	-0.715219	0.611756	0.590488
0.690357	0.580031	-0.671245	0.644459	0.748336	0.575598	-0.531119	0.645982	0.647933	0.865193	-0.603352	0.578766	0.659585	-0.623144	-0.556692	0.540836	-0.553657	0.617361	-0.561548	-0.683633	-0.538098	-0.655763	0.648218	0.583475	0.685965	0.654079	-0.54621	0.600086	-0.592241	-0.654221	0.637958	0.604159
0.565714	0.674495	-0.63113	0.659889	0.584143	0.560645	-0.594456	0.586933	0.576164	0.689276	-0.659094	0.958362	0.552851	-0.64373	-0.586437	0.621811	-0.689086	0.537826	-0.552286	-0.544948	-0.571921	-0.706156	0.584594	0.646827	0.623034	0.629709	-0.66998	0.642184	-0.669308	-0.563965	0.631137	0.695312
0.596216	0.61757	-0.671637	0.670793	0.715404	0.558454	-0.604229	0.546498	0.603468	0.821202	-0.708991	0.826229	0.690564	-0.578744	-0.632846	0.51574	-0.689254	0.533334	-0.539746	-0.6443	-0.663687	-0.660861	0.617134	0.510329	0.495753	0.681211	-0.526999	0.544606	-0.645858	-0.590946	0.6684	0.666904
0.547854	0.609813	-0.542128	0.716136	0.606524	0.660065	-0.618	0.645856	0.574834	0.776942	-0.65952	0.584873	0.697218	-0.553454	-0.674985	0.686677	-0.583358	0.527925	-0.614401	-0.635111	-0.866049	-0.66035	0.60378	0.569012	0.724253	0.589382	-0.681476	0.73527	-0.702005	-0.589405	0.662605	0.562072
0.68107	0.613213	-0.508303	0.580486	0.751615	0.620695	-0.582979	0.538991	0.714975	0.751523	-0.444971	0.933124	0.522977	-0.658522	-0.542069	0.613053	-0.542631	0.623349	-0.57165	-0.54348	-0.84235	-0.628007	0.580548	0.617806	0.591427	0.705739	-0.545882	0.564574	-0.659638	-0.5725	0.683346	0.603831
0.585647	0.612541	-0.675325	0.72613	0.694023	0.616906	-0.571818	0.618411	0.645893	0.747869	-0.63023	0.901404	0.696126	-0.635397	-0.536153	0.658341	-0.58451	0.543515	-0.572373	-0.659186	-0.75132	-0.731149	0.660881	0.663657	0.603296	0.596016	-0.473474	0.648485	-0.621634	-0.55048	0.531926	0.549924
0.576339	0.572606	-0.66012	0.70465	0.684813	0.603703	-0.620553	0.652447	0.5462	0.562756	-0.786295	0.546553	0.63958	-0.619687	-0.656364	0.656288	-0.689229	0.566685	-0.557791	-0.710712	-0.597811	-0.677682	0.555638	0.656185	0.639597	0.657085	-0.644917	0.641639	-0.602395	-0.627899	0.695916	0.580959
0.563063	0.530608	-0.574441	0.663791	0.617512	0.678109	-0.631465	0.581457	0.655182	0.649057	-0.697421	0.823874	0.696044	-0.648916	-0.555608	0.581651	-0.612137	0.551093	-0.526764	-0.659145	-0.70461	-0.571013	0.619101	0.670571	0.593772	0.716994	-0.568804	0.671838	-0.629059	-0.552436	0.654451	0.600983
0.610968	0.578804	-0.615295	0.614405	0.638421	0.629839	-0.544827	0.635365	0.525647	0.634153	-0.623304	0.663538	0.618175	-0.546337	-0.670014	0.574316	-0.591215	0.561674	-0.714251	-0.64269	-0.627708	-0.589967	0.723553	0.51517	0.633462	0.674856	-0.716862	0.65417	-0.578106	-0.690073	0.663275	0.669285
0.687101	0.489154	-0.71456	0.580663	0.693001	0.606059	-0.712659	0.785331	0.567751	0.711841	-0.778134	0.489502	0.555213	-0.78361	-0.62661	0.644013	-0.604075	0.561491	-0.57456	-0.589876	-0.689572	-0.766012	0.733021	0.743959	0.500548	0.666639	-0.64999	0.620832	-0.710819	-0.560462	0.744491	0.648882
0.537842	0.57402	-0.64214	0.630137	0.709769	0.684149	-0.606593	0.665867	0.658052	0.675398	-0.633335	0.801185	0.573901	-0.659491	-0.648151	0.659657	-0.607081	0.561965	-0.580372	-0.548889	-0.765696	-0.583116	0.622524	0.639638	0.625453	0.582291	-0.598123	0.636842	-0.564766	-0.630426	0.5361	0.687125
0.649799	0.58702	-0.620771	0.635969	0.605995	0.543233	-0.631583	0.569607	0.71892	0.797029	-0.683375	0.720626	0.624748	-0.703445	-0.547555	0.519268	-0.599947	0.589631	-0.63852	-0.654085	-0.81005	-0.752355	0.568986	0.635281	0.622889	0.600574	-0.503273	0.549851	-0.582117	-0.683429	0.64659	0.569479
0.543963	0.71413	-0.62598	0.711713	0.563772	0.637449	-0.600887	0.691756	0.570131	0.833804	-0.521079	0.811722	0.480026	-0.70996	-0.627653	0.65103	-0.556466	0.691732	-0.586762	-0.68042	-0.542172	-0.749369	0.574192	0.676598	0.629013	0.650492	-0.626836	0.731501	-0.671676	-0.517806	0.679303	0.527858
0.61982	0.57889	-0.747989	0.583807	0.507244	0.635071	-0.596452	0.546584	0.636531	0.662596	-0.669329	0.825278	0.710581	-0.712998	-0.611478	0.626207	-0.686701	0.521841	-0.680265	-0.583559	-0.862628	-0.636071	0.581027	0.530932	0.659489	0.48004	-0.65091	0.62026	-0.565568	-0.707711	0.681737	0.627432
0.508919	0.715697	-0.635208	0.576822	0.64968	0.559867	-0.56419	0.789732	0.773191	0.776477	-0.45438	0.752227	0.614969	-0.528878	-0.676736	0.700781	-0.580165	0.636203	-0.693101	-0.616998	-0.507218	-0.640293	0.543584	0.6397	0.681818	0.720275	-0.732873	0.643397	-0.581191	-0.684962	0.691432	0.633418
0.681988	0.634393	-0.649017	0.7379	0.582743	0.648664	-0.658481	0.663325	0.740116	0.713573	-0.506531	0.960449	0.574678	-0.597949	-0.546041	0.524559	-0.687812	0.559253	-0.531825	-0.608774	-0.645902	-0.686889	0.544833	0.638091	0.558584	0.61085	-0.649578	0.528844	-0.68263	-0.56574	0.653883	0.66547
0.656352	0.638311	-0.66046	0.66634	0.572899	0.610998	-0.655531	0.651611	0.536519	0.579891	-0.651879	0.547216	0.645517	-0.638341	-0.570437	0.674697	-0.58249	0.653364	-0.570096	-0.646291	-0.798055	-0.691736	0.526887	0.626381	0.655269	0.592396	-0.563476	0.546623	-0.577875	-0.642193	0.564428	0.635997
0.700035	0.680045	-0.611984	0.615857	0.718682	0.563067	-0.52652	0.61592	0.744479	0.688334	-0.53717	0.890402	0.502902	-0.681338	-0.68217	0.626138	-0.623934	0.589329	-0.545821	-0.702664	-0.73272	-0.609087	0.594747	0.532285	0.647803	0.601203	-0.525396	0.557742	-0.712893	-0.641016	0.551744	0.568013
0.516885	0.631979	-0.646273	0.58248	0.750307	0.513596	-0.520382	0.607491	0.658537	0.747918	-0.593028	0.832035	0.585546	-0.594625	-0.684653	0.548922	-0.599604	0.577534	-0.652811	-0.612618	-0.80146	-0.720715	0.697975	0.635204	0.543223	0.732166	-0.560432	0.667605	-0.569474	-0.608095	0.628923	0.645168
0.614348	0.647019	-0.68297	0.563319	0.632115	0.633872	-0.600761	0.536406	0.724845	0.667838	-0.499296	0.868277	0.615669	-0.674892	-0.627539	0.569286	-0.55992	0.596559	-0.613123	-0.522994	-0.61773	-0.709223	0.684424	0.621082	0.571658	0.650621	-0.546662	0.589844	-0.604571	-0.588243	0.663878	0.581229
0.805722	0.654342	-0.358923	0.664887	0.416477	0.71733	-0.80926	0.542159	0.452749	0.720967	-0.82352	0.128014	0.798669	-0.723692	-0.752837	0.642512	-0.794467	0.854845	-0.558777	-0.649147	-0.674289	-0.341036	0.641762	0.639738	0.454042	0.690477	-0.842642	0.770746	-0.764226	-0.704432	0.55398	0.524787
0.745537	0.834948	-0.465374	0.866341	0.870328	0.788566	-1.00295	0.702088	0.669221	-0.645438	-0.696364	0.349138	0.554527	-0.822696	-0.717364	0.80357	-0.655239	0.615225	-0.755933	-0.688772	0.141838	-0.991003	0.465505	0.862015	0.63662	0.13194	-1.02131	0.518512	-0.732151	-0.725695	0.499508	0.649198
0.645171	0.587344	-0.2184	0.391144	0.658186	0.653229	-0.538159	0.731615	0.806183	0.277446	-0.668151	1.04102	0.734843	-0.558286	-0.571651	0.572835	-0.630258	0.773668	-0.759343	-0.498539	-0.7538	-0.856354	0.721744	0.767142	0.688186	0.714034	-0.67634	0.529034	-0.602229	-0.632736	0.705935	0.517983
0.690519	0.610783	-0.700236	0.68344	0.748394	0.531725	-0.694194	0.656256	0.539152	0.828529	-0.64512	0.75301	0.548816	-0.493114	-0.523301	0.62625	-0.720575	0.694253	-0.539202	-0.679366	-0.696711	-0.487719	0.526833	0.533986	0.579439	0.69069	-0.550072	0.680903	-0.682821	-0.538559	0.53976	0.656536
0.639364	0.679681	-0.638664	0.680847	0.636424	0.576778	-0.624295	0.568875	0.70874	0.705397	-0.733861	0.646141	0.64613	-0.557236	-0.649249	0.529544	-0.568502	0.531375	-0.550226	-0.626328	-0.678148	-0.676859	0.599872	0.524465	0.541393	0.615122	-0.632556	0.688962	-0.663055	-0.641101	0.594414	0.52808
0.525636	0.545998	-0.637041	0.637049	0.642315	0.544702	-0.652476	0.606638	0.587952	0.702324	-0.73801	0.947367	0.592346	-0.559092	-0.644137	0.620605	-0.640105	0.653241	-0.640909	-0.632826	-0.677825	-0.663179	0.638253	0.555363	0.551286	0.599369	-0.547448	0.651292	-0.649918	-0.534564	0.661802	0.651334
0.589602	0.654535	-0.720746	0.672442	0.652581	0.57001	-0.642148	0.605795	0.706266	0.741577	-0.529659	0.529648	0.634573	-0.554083	-0.559878	0.68048	-0.561566	0.558228	-0.604853	-0.545408	-0.79248	-0.731126	0.601449	0.615787	0.542252	0.719466	-0.670844	0.662603	-0.580672	-0.53918	0.605725	0.674329
0.626652	0.659254	-0.712674	0.638929	0.706929	0.643383	-0.665923	0.656409	0.669624	0.649639	-0.66436	0.50934	0.613718	-0.598015	-0.528478	0.62862	-0.564881	0.679006	-0.527768	-0.544688	-0.817402	-0.53678	0.554015	0.672341	0.553464	0.634663	-0.548858	0.692925	-0.618881	-0.535565	0.537878	0.575432
0.645984	0.602676	-0.63854	0.623641	0.631523	0.635528	-0.613967	0.595966	0.597088	0.742592	-0.518598	0.6697	0.729755	-0.712542	-0.652301	0.554471	-0.531702	0.584564	-0.671914	-0.607682	-0.826685	-0.615874	0.632565	0.595485	0.642373	0.519687	-0.553031	0.648243	-0.742836	-0.636927	0.612432	0.750515
0.59798	0.534082	-0.74447	0.70914	0.632582	0.540294	-0.629703	0.713074	0.572368	0.741388	-0.682664	0.635207	0.634179	-0.533669	-0.642903	0.696985	-0.616516	0.522708	-0.686452	-0.654234	-0.751767	-0.690334	0.680153	0.711714	0.553478	0.592018	-0.681247	0.604095	-0.576792	-0.655255	0.711741	0.5617
0.708521	0.751358	-0.797393	0.620197	0.643244	0.711392	-0.638263	0.629001	0.693583	0.719131	-0.474733	0.497653	0.517011	-0.601509	-0.539225	0.666215	-0.554038	0.586091	-0.625093	-0.657642	-0.429705	-0.597678	0.582552	0.62268	0.687832	0.664906	-0.623791	0.735329	-0.625684	-0.690618	0.657416	0.617235
0.618317	0.572705	-0.627935	0.654311	0.600811	0.614231	-0.597022	0.548052	0.51801	0.698171	-0.600403	0.864334	0.661988	-0.625567	-0.557549	0.663264	-0.59216	0.650447	-0.591611	-0.639545	-0.58503	-0.623066	0.557663	0.582746	0.614478	0.714572	-0.622472	0.674816	-0.595102	-0.597739	0.60395	0.602231
0.632589	0.538362	-0.620784	0.700117	0.725127	0.606696	-0.572858	0.537293	0.647975	0.738158	-0.631599	0.627301	0.617749	-0.5923	-0.621545	0.577295	-0.706048	0.608205	-0.665924	-0.556729	-0.799918	-0.680816	0.597795	0.516116	0.544139	0.683803	-0.676504	0.549157	-0.537023	-0.553032	0.588388	0.60907
0.669805	0.61586	-0.660796	0.603825	0.624491	0.644754	-0.545621	0.544245	0.654631	0.746028	-0.504723	0.762784	0.629696	-0.620778	-0.651974	0.641244	-0.697361	0.660653	-0.697178	-0.655744	-0.621114	-0.634305	0.635642	0.548919	0.614545	0.604542	-0.631213	0.604833	-0.552443	-0.604908	0.677216	0.593557
0.591287	0.559619	-0.624103	0.640396	0.710599	0.568024	-0.568971	0.465461	0.565436	0.704474	-0.669731	0.913366	0.606161	-0.583056	-0.6136	0.555585	-0.552559	0.549498	-0.640052	-0.667292	-0.863389	-0.578363	0.650749	0.516661	0.701767	0.694981	-0.628055	0.622751	-0.649097	-0.631675	0.6571	0.624373
0.537851	0.66969	-0.592203	0.73672	0.644208	0.530107	-0.538075	0.558576	0.675165	0.702319	-0.775512	0.877984	0.69887	-0.543689	-0.627898	0.615528	-0.642246	0.66309	-0.570272	-0.669247	-0.595964	-0.556407	0.531579	0.541598	0.572515	0.579443	-0.651435	0.652789	-0.673951	-0.64418	0.641135	0.558516
0.623348	0.618226	-0.651367	0.684304	0.536287	0.64257	-0.552402	0.523222	0.70169	0.707906	-0.81307	0.767356	0.546906	-0.565522	-0.630167	0.518163	-0.464699	0.587283	-0.64239	-0.682688	-0.807845	-0.631941	0.675298	0.558137	0.62227	0.62854	-0.640436	0.572876	-0.705669	-0.660936	0.556001	0.638996
0.684385	0.552792	-0.49992	0.581969	0.593783	0.648927	-0.562095	0.677285	0.580472	0.602153	-0.683974	0.98893	0.643366	-0.644029	-0.557319	0.633776	-0.577145	0.644058	-0.615402	-0.580653	-0.624327	-0.646365	0.596614	0.706753	0.575861	0.607169	-0.687039	0.51785	-0.661537	-0.66218	0.68761	0.582119
0.629662	0.544762	-0.647793	0.656827	0.737334	0.505891	-0.548158	0.562426	0.594224	0.771389	-0.580208	0.852152	0.659566	-0.61416	-0.554886	0.592508	-0.685672	0.591372	-0.578191	-0.546972	-0.685632	-0.631223	0.682643	0.556138	0.644411	0.554524	-0.655502	0.641357	-0.615277	-0.548135	0.645442	0.603429
0.649842	0.59486	-0.586206	0.69988	0.68721	0.593917	-0.543537	0.681113	0.674821	0.797539	-0.643742	0.789224	0.568712	-0.682687	-0.524929	0.654934	-0.66001	0.640139	-0.654602	-0.583503	-0.694024	-0.596258	0.653926	0.630242	0.653976	0.573788	-0.586484	0.579868	-0.629027	-0.675008	0.540315	0.605477
0.589909	0.636596	-0.602487	0.703215	0.653009	0.589808	-0.568255	0.602712	0.572484	0.680072	-0.613176	0.80328	0.554057	-0.534823	-0.694591	0.638281	-0.70111	0.635711	-0.653772	-0.607008	-0.684144	-0.779383	0.510997	0.60399	0.542004	0.613071	-0.686802	0.614949	-0.692549	-0.510143	0.579503	0.537893
0.633677	0.610426	-0.536009	0.567647	0.556253	0.527478	-0.634272	0.625868	0.66631	0.356101	-0.803923	1.04127	0.787601	-0.68687	-0.621645	0.640198	-0.67881	0.739679	-0.588105	-0.492439	-0.688651	-0.69304	0.578342	0.518743	0.659164	0.592006	-0.624846	0.552345	-0.701141	-0.630963	0.598199	0.587928
0.678047	0.646975	-0.692178	0.675939	0.654836	0.527396	-0.572442	0.675491	0.709771	0.748404	-0.786644	0.70834	0.634876	-0.502149	-0.596691	0.56526	-0.586847	0.612673	-0.530177	-0.551126	-0.810354	-0.683847	0.688897	0.646008	0.688212	0.556391	-0.668517	0.600991	-0.630269	-0.709349	0.660717	0.623096
0.643335	0.565695	-0.710164	0.690502	0.572873	0.644442	-0.635518	0.592585	0.624458	0.583938	-0.742182	0.687694	0.59994	-0.596032	-0.564823	0.591122	-0.595918	0.64885	-0.546864	-0.601565	-0.718878	-0.59738	0.591343	0.546975	0.618451	0.648053	-0.601724	0.606004	-0.580556	-0.642188	0.59469	0.669998
0.66533	0.538957	-0.608508	0.708492	0.693691	0.655543	-0.570896	0.605412	0.718703	0.642212	-0.51313	0.773846	0.56637	-0.565722	-0.517684	0.59	-0.531072	0.549782	-0.674307	-0.63872	-0.762977	-0.690727	0.598441	0.599472	0.654271	0.732708	-0.589401	0.510501	-0.66557	-0.510562	0.658786	0.600108
0.628694	0.687512	-0.728132	0.679326	0.737177	0.641606	-0.615797	0.658102	0.59037	0.562862	-0.639995	0.734547	0.693569	-0.543747	-0.540224	0.623747	-0.530958	0.719026	-0.698529	-0.581936	-0.899006	-0.632478	0.6469	0.590944	0.72426	0.576017	-0.556847	0.621427	-0.588928	-0.687168	0.585608	0.530956
0.58832	0.536932	-0.777197	0.557159	0.598184	0.691897	-0.73422	0.635007	0.578987	0.522701	-0.725855	0.219403	0.781556	-0.711747	-0.528771	0.650011	-0.772194	0.793665	-0.567714	-0.672727	-0.814368	-0.698719	0.675083	0.497233	0.502167	0.780573	-0.551066	0.572064	-0.6765	-0.586047	0.747985	0.723714
0.715333	0.635676	-0.490926	0.734317	0.789179	0.531964	-0.737377	0.744079	0.720137	0.901786	-0.767439	0.603433	0.691005	-0.555132	-0.439088	0.744423	-0.655795	0.469404	-0.521766	-0.749541	-0.733701	-0.70094	0.634989	0.504479	0.588072	0.592046	-0.617828	0.566839	-0.549044	-0.513855	0.632455	0.690217
0.642003	0.557279	-0.614804	0.607214	0.671731	0.561734	-0.572853	0.690551	0.687248	0.747625	-0.541626	0.927585	0.624397	-0.629954	-0.549553	0.647879	-0.54103	0.52951	-0.609059	-0.5483	-0.800955	-0.67737	0.598127	0.598485	0.551883	0.607475	-0.610234	0.586397	-0.540118	-0.613734	0.567518	0.588728
0.646136	0.680842	-0.733074	0.607067	0.466165	0.699258	-0.765048	0.554931	0.689839	0.398008	-0.560557	0.8724	0.756481	-0.619377	-0.512589	0.55687	-0.757409	0.647756	-0.744846	-0.656971	-0.766221	-0.585098	0.684803	0.792677	0.725246	0.750356	-0.756504	0.403108	-0.703064	-0.580245	0.537893	0.557271
0.561987	0.576226	-0.507755	0.732173	0.59152	0.640869	-0.598628	0.52498	0.677327	0.509702	-0.73645	0.833509	0.710367	-0.625361	-0.549553	0.666509	-0.694704	0.551403	-0.577761	-0.570888	-0.805135	-0.674341	0.563717	0.661933	0.578908	0.541554	-0.664945	0.550232	-0.657703	-0.672146	0.578717	0.654141
0.590335	0.595778	-0.544145	0.577973	0.658898	0.603103	-0.537438	0.668307	0.611524	0.805646	-0.757473	0.52425	0.682729	-0.58081	-0.622111	0.534835	-0.627833	0.623478	-0.655432	-0.620254	-0.853332	-0.67022	0.658243	0.571197	0.528338	0.679114	-0.609376	0.645085	-0.633296	-0.553168	0.594208	0.613899
0.560597	0.569932	-0.444965	0.718815	0.742701	0.491717	-0.674275	0.587927	0.574143	0.822	-0.721498	0.896784	0.496199	-0.515395	-0.66226	0.526813	-0.609211	0.597928	-0.64508	-0.579413	-0.713674	-0.582638	0.557258	0.597782	0.711717	0.710993	-0.651783	0.691536	-0.541055	-0.632754	0.636346	0.647795
0.582895	0.62294	-0.599644	0.602111	0.686768	0.668141	-0.684216	0.570275	0.589134	0.653889	-0.71283	0.87613	0.628034	-0.647711	-0.537125	0.604049	-0.627566	0.621313	-0.560007	-0.582857	-0.65518	-0.758886	0.559453	0.595851	0.652691	0.591374	-0.537939	0.677212	-0.582859	-0.623924	0.675546	0.618895
0.530606	0.542758	-0.670541	0.715467	0.726638	0.591529	-0.520004	0.568964	0.680127	0.589882	-0.770954	0.788162	0.654352	-0.677932	-0.540153	0.613271	-0.690014	0.649164	-0.622044	-0.550431	-0.875238	-0.714011	0.59145	0.520684	0.602966	0.573647	-0.689816	0.605882	-0.653635	-0.593664	0.643244	0.638388
0.66335	0.640959	-0.712245	0.49514	0.530128	0.609908	-0.585113	0.618039	0.807575	0.487786	-0.636647	0.821194	0.756841	-0.591427	-0.705148	0.629779	-0.758878	0.683061	-0.557087	-0.611347	-0.588713	-0.431003	0.560123	0.687126	0.788449	0.837187	-0.648375	0.683776	-0.571823	-0.507643	0.520212	0.629815
0.524372	0.701226	-0.735412	0.70996	0.681726	0.654485	-0.533331	0.805116	0.721813	0.826223	-0.764715	0.00666651	0.636721	-0.636351	-0.751541	0.739054	-0.598367	0.47789	-0.634194	-0.46419	-0.761007	-0.61425	0.643568	0.563447	0.800069	0.842875	-0.595006	0.527839	-0.567302	-0.861226	0.620041	0.469919
0.610758	0.561683	-0.573708	0.718296	0.613297	0.573391	-0.596158	0.581346	0.615317	0.64246	-0.628352	0.705828	0.654853	-0.632334	-0.548363	0.583324	-0.581418	0.666335	-0.592452	-0.640984	-0.730299	-0.562366	0.619234	0.684706	0.591694	0.709225	-0.653144	0.595246	-0.642253	-0.673923	0.567098	0.564625
0.620063	0.650334	-0.497851	0.726094	0.614862	0.689166	-0.468173	0.703906	0.743062	0.886998	-0.822183	0.982109	0.625152	-0.670253	-0.485025	0.418793	-0.720722	0.703289	-0.513947	-0.678247	-0.85852	-0.762954	0.598937	0.742993	0.698584	0.472821	-0.610267	0.602482	-0.557791	-0.32279	0.401444	0.564991
0.586742	0.672486	-0.669832	0.708853	0.670043	0.642237	-0.564776	0.66492	0.717547	0.714859	-0.654848	0.919641	0.49901	-0.650159	-0.584669	0.602976	-0.494581	0.692172	-0.52047	-0.709342	-0.788239	-0.660864	0.543106	0.638272	0.5818	0.526542	-0.552656	0.558219	-0.652559	-0.480718	0.503089	0.635907
0.593997	0.666779	-0.643668	0.610051	0.70709	0.557217	-0.591559	0.563296	0.676467	0.767854	-0.644808	0.649102	0.590272	-0.570107	-0.606277	0.623588	-0.707156	0.560391	-0.547317	-0.66844	-0.722985	-0.663293	0.554954	0.542427	0.522961	0.699986	-0.567867	0.675731	-0.608256	-0.606296	0.543761	0.502105
0.658241	0.572285	-0.586437	0.669687	0.588688	0.597219	-0.61654	0.589589	0.620389	0.804716	-0.680652	0.909426	0.671213	-0.575059	-0.647075	0.604347	-0.634624	0.535383	-0.629939	-0.624701	-0.464125	-0.645361	0.66167	0.644191	0.523303	0.692912	-0.628494	0.663701	-0.554907	-0.685404	0.583833	0.550007
0.556179	0.640816	-0.607814	0.490283	0.63816	0.715453	-0.570504	0.576356	0.697176	0.644371	-0.500698	0.719257	0.543941	-0.646835	-0.572557	0.697126	-0.599868	0.543141	-0.572404	-0.597299	-0.764128	-0.484736	0.548617	0.692281	0.677544	0.752845	-0.660973	0.614384	-0.547031	-0.688302	0.649564	0.731115
0.564347	0.672011	-0.743599	0.618828	0.649566	0.63543	-0.613635	0.539913	0.678594	0.79386	-0.526312	0.879204	0.509938	-0.555321	-0.55344	0.655568	-0.707703	0.612785	-0.552133	-0.588126	-0.802453	-0.584123	0.609259	0.579165	0.600644	0.667339	-0.526834	0.698579	-0.604619	-0.635919	0.635394	0.700237
0.686263	0.604595	-0.552974	0.627257	0.676265	0.712155	-0.629473	0.666079	0.626862	0.831037	-0.683592	0.503193	0.684481	-0.569048	-0.712407	0.586292	-0.650957	0.639845	-0.506168	-0.535643	-0.778205	-0.557885	0.607672	0.644523	0.697007	0.628246	-0.656769	0.690094	-0.706251	-0.552065	0.595244	0.619045
0.528416	0.5195	-0.74728	0.732875	0.720799	0.582866	-0.522898	0.660438	0.652508	0.788233	-0.637117	0.667189	0.71926	-0.631081	-0.559646	0.540502	-0.689778	0.666089	-0.64011	-0.574717	-0.55347	-0.537279	0.658335	0.728756	0.639332	0.715749	-0.55888	0.615986	-0.602333	-0.60412	0.646719	0.662546
0.569691	0.575415	-0.574051	0.567382	0.603539	0.58129	-0.634415	0.557028	0.651296	0.768241	-0.658185	0.756172	0.684908	-0.570641	-0.521409	0.515233	-0.598621	0.642106	-0.650564	-0.642054	-0.657115	-0.686147	0.637352	0.57591	0.571543	0.719191	-0.664835	0.618445	-0.653553	-0.571304	0.609263	0.596263
0.583936	0.575831	-0.525371	0.701359	0.617237	0.594638	-0.5561	0.628241	0.710946	0.642227	-0.668972	0.792884	0.584362	-0.54316	-0.534503	0.600691	-0.572411	0.576488	-0.657615	-0.644477	-0.817019	-0.611425	0.616236	0.598201	0.608557	0.602454	-0.550155	0.631176	-0.555361	-0.55966	0.62898	0.609247
0.569671	0.534032	-0.683999	0.689722	0.559393	0.59642	-0.636665	0.578444	0.567703	0.789108	-0.629394	0.802802	0.648639	-0.63612	-0.554199	0.684444	-0.538958	0.617633	-0.62865	-0.660856	-0.652129	-0.633388	0.531173	0.622395	0.607011	0.55965	-0.541154	0.573157	-0.611669	-0.595859	0.648736	0.618266
0.586923	0.640877	-0.748255	0.61449	0.635602	0.684022	-0.53955	0.601539	0.584629	0.653428	-0.565154	0.795201	0.708378	-0.52011	-0.637677	0.661503	-0.68299	0.555252	-0.685437	-0.578355	-0.741751	-0.686547	0.660896	0.64169	0.633654	0.570352	-0.592777	0.622306	-0.660907	-0.697082	0.488862	0.650422
0.519197	0.524234	-0.553629	0.684008	0.633106	0.646509	-0.620258	0.588519	0.703121	0.483523	-0.676798	0.869762	0.603104	-0.671446	-0.679804	0.56603	-0.623401	0.681758	-0.538353	-0.560917	-0.670839	-0.557304	0.61733	0.586976	0.689055	0.682002	-0.612846	0.609107	-0.63972	-0.542689	0.643927	0.573901
0.560207	0.533998	-0.597824	0.633806	0.670004	0.625131	-0.55842	0.614027	0.642583	0.713415	-0.576545	0.751373	0.631004	-0.617148	-0.637027	0.517453	-0.614174	0.638753	-0.665353	-0.598114	-0.785918	-0.599677	0.640506	0.587836	0.653805	0.664251	-0.530154	0.736502	-0.57753	-0.60904	0.657074	0.635653
0.608623	0.63289	-0.585612	0.679468	0.662283	0.582853	-0.645282	0.579184	0.639413	0.796868	-0.751152	0.840435	0.593843	-0.561561	-0.55866	0.561007	-0.664934	0.622657	-0.505229	-0.624624	-0.694793	-0.440887	0.557295	0.596352	0.554196	0.696113	-0.625959	0.605365	-0.595209	-0.664547	0.657989	0.644131
0.548214	0.636329	-0.558675	0.696578	0.488911	0.558111	-0.647055	0.577936	0.575823	0.70737	-0.64288	0.668007	0.682296	-0.600627	-0.701851	0.550562	-0.749904	0.598714	-0.660299	-0.679182	-0.665355	-0.589951	0.699732	0.595334	0.679003	0.694755	-0.580705	0.47607	-0.656199	-0.589118	0.657883	0.677762
0.728591	0.667364	-0.498353	0.417242	0.774978	0.583865	-0.653636	0.798387	0.735775	0.771629	-0.525768	0.603627	0.409347	-0.455366	-0.558599	0.672434	-0.482729	0.709123	-0.646867	-0.589675	-0.381974	-0.714676	0.695264	0.690228	0.630628	0.538998	-0.593585	0.761187	-0.660504	-0.752486	0.632873	0.681858
0.572458	0.534621	-0.457512	0.663943	0.490473	0.549934	-0.652036	0.54508	0.694147	0.824396	-0.783275	0.836082	0.647275	-0.670689	-0.615908	0.577538	-0.625196	0.565038	-0.652504	-0.672845	-0.704574	-0.712467	0.619414	0.473849	0.713541	0.483912	-0.639597	0.563455	-0.60635	-0.611156	0.622179	0.713999
0.60046	0.605023	-0.730515	0.892299	0.654741	0.717344	-0.496679	0.726591	0.804811	0.698832	-0.771133	0.759001	0.499292	-0.687963	-0.480278	0.557824	-0.623819	0.739298	-0.561431	-0.490086	-0.471478	-0.614222	0.623195	0.660499	0.675106	0.850107	-0.364195	0.645163	-0.501553	-0.670053	0.5364	0.645537
0.944587	0.615769	-0.92755	0.679671	0.374019	0.754991	-0.830612	0.347647	0.694609	0.754545	-0.638304	0.140494	0.659598	-0.566142	-0.683021	0.805074	-0.521981	0.667641	-0.356455	-0.661826	-0.546832	-0.728706	0.451963	0.536134	0.792309	0.887239	-0.854847	0.787699	-0.697141	-0.838302	0.378823	0.813014
0.719877	0.572061	-0.639384	0.594786	0.606287	0.596677	-0.643556	0.597078	0.702553	0.70011	-0.358248	0.847696	0.757122	-0.668978	-0.606435	0.625995	-0.526434	0.549573	-0.524418	-0.632834	-0.520903	-0.620001	0.554386	0.528583	0.528433	0.760463	-0.614367	0.584144	-0.684341	-0.715477	0.707088	0.721369
0.590498	0.613066	-0.584649	0.706391	0.621257	0.541129	-0.640198	0.681512	0.551791	0.494485	-0.642818	0.807171	0.672239	-0.600928	-0.572672	0.591075	-0.66167	0.660913	-0.601519	-0.621195	-0.66563	-0.744422	0.631824	0.571732	0.630962	0.682399	-0.618368	0.690912	-0.65472	-0.677535	0.590094	0.704369
0.614966	0.562749	-0.578314	0.640271	0.546046	0.637682	-0.652172	0.524858	0.68465	0.560494	-0.681522	0.713556	0.675454	-0.544062	-0.612883	0.569982	-0.582525	0.555652	-0.674452	-0.672334	-0.755689	-0.751683	0.58541	0.688414	0.5564	0.730415	-0.663293	0.69432	-0.635177	-0.570086	0.683749	0.520724
0.623931	0.534886	-0.523142	0.632385	0.634303	0.583973	-0.659441	0.605289	0.610205	0.765939	-0.705822	0.538082	0.62431	-0.604176	-0.648395	0.550708	-0.690041	0.576221	-0.566052	-0.58743	-0.801143	-0.653359	0.526586	0.502773	0.498257	0.67443	-0.514719	0.664849	-0.587088	-0.60256	0.670592	0.638854
0.601913	0.59481	-0.669952	0.705181	0.591134	0.631976	-0.635557	0.563592	0.679003	0.753281	-0.67161	0.879621	0.572417	-0.514932	-0.531233	0.621887	-0.622267	0.632763	-0.623761	-0.631275	-0.830702	-0.556362	0.590347	0.551785	0.632426	0.655541	-0.643776	0.561526	-0.609279	-0.535501	0.62599	0.561225
0.677116	0.705653	-0.505774	0.667993	0.695702	0.702575	-0.60069	0.478211	0.617207	0.613831	-0.780005	0.806814	0.619598	-0.548995	-0.59106	0.64957	-0.651919	0.621675	-0.508956	-0.531993	-0.796354	-0.762646	0.582833	0.662242	0.670496	0.685373	-0.57297	0.559404	-0.691845	-0.634821	0.68424	0.614753
0.504789	0.558611	-0.439553	0.695688	0.652367	0.624936	-0.611973	0.586063	0.638655	0.721857	-0.78112	0.874177	0.705957	-0.493523	-0.620195	0.660308	-0.661621	0.544212	-0.649637	-0.552827	-0.737298	-0.593148	0.607353	0.588361	0.64749	0.625289	-0.67214	0.666615	-0.532971	-0.569844	0.657393	0.573265
0.723573	0.67853	-0.565671	0.582908	0.60246	0.523431	-0.527421	0.590195	0.68628	0.592906	-0.809185	0.796043	0.664909	-0.604216	-0.705513	0.514551	-0.642555	0.62754	-0.614909	-0.568652	-0.897232	-0.723376	0.643374	0.576291	0.541929	0.677956	-0.507802	0.613666	-0.606777	-0.693961	0.717453	0.545981
0.59752	0.578189	-0.702707	0.630508	0.687759	0.6507	-0.522355	0.693728	0.509644	0.639525	-0.690338	0.771486	0.671701	-0.663945	-0.616857	0.524684	-0.649017	0.585174	-0.663046	-0.666143	-0.745886	-0.51963	0.557143	0.657827	0.591709	0.743385	-0.69393	0.666822	-0.589292	-0.634117	0.658911	0.565978
0.619165	0.708441	-0.526349	0.578264	0.641032	0.684738	-0.587445	0.600818	0.692953	0.547248	-0.575344	0.979284	0.600351	-0.607955	-0.623358	0.64088	-0.608672	0.685064	-0.6276	-0.620537	-0.719082	-0.686603	0.685694	0.650946	0.65132	0.549048	-0.593228	0.547214	-0.669218	-0.539829	0.547445	0.646426
0.540542	0.621113	-0.618955	0.618488	0.677146	0.612736	-0.601806	0.611917	0.55596	0.617828	-0.723962	0.742543	0.683242	-0.657198	-0.605058	0.641411	-0.656547	0.60417	-0.56113	-0.643424	-0.737843	-0.549571	0.532398	0.62311	0.568434	0.630838	-0.572061	0.57164	-0.557426	-0.545172	0.660587	0.674198
0.654248	0.613863	-0.654965	0.711767	0.576452	0.639266	-0.597011	0.682921	0.696082	0.641541	-0.789229	0.513774	0.69447	-0.555972	-0.540667	0.645161	-0.621492	0.707969	-0.548578	-0.528297	-0.627236	-0.642652	0.641568	0.616459	0.636035	0.670727	-0.557619	0.659514	-0.696994	-0.535353	0.610872	0.663267
0.563735	0.578017	-0.602336	0.637048	0.515121	0.605761	-0.567187	0.63154	0.543971	0.720143	-0.718291	0.800569	0.555901	-0.59345	-0.63371	0.625204	-0.662183	0.624533	-0.607122	-0.531957	-0.613529	-0.611449	0.543841	0.62599	0.662128	0.699404	-0.529598	0.687114	-0.666522	-0.642104	0.58348	0.626412
0.59501	0.613985	-0.707888	0.679404	0.692284	0.621936	-0.606748	0.534901	0.594762	0.511909	-0.65229	0.863264	0.653879	-0.546412	-0.5271	0.584854	-0.654145	0.634203	-0.52412	-0.585402	-0.788921	-0.633093	0.638038	0.637498	0.667871	0.582558	-0.65207	0.675222	-0.604709	-0.658893	0.62129	0.658056
0.621765	0.570192	-0.501921	0.678757	0.656936	0.636127	-0.601127	0.654125	0.587061	0.633351	-0.55935	0.528749	0.66125	-0.65312	-0.658607	0.668976	-0.587273	0.518591	-0.664949	-0.604936	-0.816115	-0.653347	0.595022	0.562	0.567287	0.570598	-0.546115	0.608759	-0.594571	-0.637708	0.649952	0.649013
0.675391	0.549086	-0.559533	0.675463	0.596269	0.614385	-0.567802	0.661157	0.605522	0.58666	-0.589643	0.532529	0.701826	-0.619541	-0.592434	0.654795	-0.553852	0.506506	-0.635295	-0.576442	-0.811204	-0.649178	0.664483	0.642925	0.629398	0.535989	-0.624438	0.608666	-0.638854	-0.586091	0.562925	0.676774
0.545218	0.636037	-0.492416	0.673304	0.547115	0.6346	-0.666297	0.651801	0.642209	0.750564	-0.687472	0.901536	0.670575	-0.619001	-0.576882	0.548061	-0.558712	0.528709	-0.553641	-0.621016	-0.757136	-0.688181	0.62241	0.555979	0.636032	0.570983	-0.547063	0.579955	-0.531514	-0.626674	0.57208	0.544034
0.664198	0.613266	-0.636361	0.64592	0.59703	0.600488	-0.540733	0.675651	0.635134	0.65966	-0.651712	0.960624	0.648949	-0.551106	-0.600363	0.527488	-0.679756	0.65674	-0.597828	-0.644723	-0.694529	-0.739391	0.554757	0.507477	0.650123	0.696734	-0.63913	0.554987	-0.625732	-0.642615	0.645459	0.572514
0.677223	0.663948	-0.679192	0.458074	0.592122	0.656548	-0.662469	0.644216	0.593733	0.741445	-0.412711	0.881063	0.683953	-0.644553	-0.576329	0.562473	-0.619198	0.620519	-0.545288	-0.623189	-0.563142	-0.730232	0.586296	0.617827	0.608963	0.601673	-0.618914	0.541595	-0.608424	-0.587812	0.656598	0.678123
0.673357	0.68245	-0.515247	0.705303	0.649808	0.706184	-0.659802	0.668446	0.644074	0.775877	-0.516207	0.648091	0.591692	-0.650473	-0.554304	0.52504	-0.593279	0.629677	-0.565088	-0.575604	-0.663502	-0.722495	0.573093	0.691092	0.641319	0.683168	-0.684531	0.527944	-0.670012	-0.660646	0.690611	0.538622
0.567216	0.672315	-0.423105	0.709229	0.616852	0.665933	-0.546223	0.553985	0.684337	0.636233	-0.664813	0.871645	0.641249	-0.61689	-0.649973	0.62026	-0.686507	0.595318	-0.679086	-0.584175	-0.731858	-0.641561	0.646608	0.614349	0.650328	0.654427	-0.612239	0.533652	-0.640489	-0.578331	0.676412	0.5452
0.692368	0.601134	-0.599223	0.614688	0.606898	0.613582	-0.541067	0.541396	0.65576	0.58746	-0.681023	0.578401	0.622181	-0.651297	-0.649772	0.60634	-0.540435	0.675134	-0.641639	-0.655178	-0.706551	-0.63496	0.671558	0.577181	0.592893	0.592938	-0.636731	0.557355	-0.660147	-0.598722	0.58112	0.556736
0.669908	0.630486	-0.615944	0.606507	0.627412	0.544886	-0.618689	0.710996	0.515836	0.778573	-0.697719	0.770044	0.697763	-0.527887	-0.667563	0.642956	-0.623144	0.633747	-0.640687	-0.542874	-0.680288	-0.748305	0.685933	0.68271	0.611643	0.64096	-0.508249	0.610926	-0.628011	-0.658646	0.643401	0.588592
0.569075	0.63526	-0.645439	0.660442	0.667148	0.641352	-0.536865	0.664492	0.577447	0.773894	-0.629849	0.606528	0.646362	-0.604925	-0.587624	0.637841	-0.515906	0.648732	-0.64475	-0.590305	-0.600874	-0.651453	0.642878	0.536382	0.663214	0.636645	-0.635125	0.601896	-0.534747	-0.646357	0.586396	0.67476
0.708127	0.690033	-0.664895	0.716682	0.744011	0.593799	-0.699738	0.56828	0.70039	0.730397	-0.739076	0.521127	0.663747	-0.653879	-0.493527	0.605911	-0.567447	0.639056	-0.535628	-0.64959	-0.891373	-0.545078	0.577965	0.557759	0.548355	0.607356	-0.622612	0.68572	-0.699284	-0.696788	0.54207	0.601021
0.644892	0.544374	-0.501557	0.526102	0.68181	0.531371	-0.54565	0.606266	0.691934	0.602512	-0.64547	0.748623	0.680239	-0.67012	-0.667157	0.54564	-0.606734	0.673692	-0.506007	-0.602828	-0.818921	-0.600345	0.559442	0.540938	0.651454	0.651934	-0.713835	0.55171	-0.707857	-0.570698	0.567259	0.68214
0.473082	0.539305	-0.659818	0.684378	0.56013	0.650762	-0.623255	0.532476	0.696765	0.842416	-0.649755	0.609141	0.694165	-0.525183	-0.659554	0.639708	-0.703771	0.655116	-0.612511	-0.562806	-0.76343	-0.718451	0.660228	0.607113	0.698666	0.600189	-0.57381	0.626388	-0.553457	-0.681616	0.543023	0.536241
0.722861	0.686836	-0.608906	0.731346	0.739522	0.451884	-0.587287	0.745512	0.712147	0.652528	-0.816542	0.323629	0.77138	-0.668015	-0.711926	0.646339	-0.454373	0.749434	-0.626343	-0.594559	-0.934459	-0.567839	0.583618	0.620501	0.563405	0.820615	-0.625948	0.654445	-0.717716	-0.586495	0.521776	0.532319
0.664947	0.505964	-0.546517	0.71103	0.593109	0.66801	-0.678182	0.557822	0.610793	0.683959	-0.688321	0.751605	0.638709	-0.537769	-0.611657	0.54608	-0.64624	0.621886	-0.659703	-0.52751	-0.826843	-0.518253	0.599033	0.685909	0.708201	0.708111	-0.66866	0.627308	-0.551043	-0.658808	0.606776	0.542365
0.713094	0.593278	-0.704963	0.765582	0.648868	0.630181	-0.607864	0.596649	0.612164	0.590102	-0.677215	0.574342	0.574249	-0.600358	-0.566417	0.60882	-0.58214	0.665287	-0.660436	-0.642117	-0.7066	-0.613151	0.642599	0.60121	0.619069	0.648437	-0.681839	0.609453	-0.563554	-0.591099	0.699904	0.621983
1.02116	0.546413	-0.842531	1.02291	0.0757965	0.745703	-0.749833	0.684269	0.44785	0.367882	-0.342254	0.793789	0.71887	-0.690638	-0.735849	0.618783	-0.445807	0.585092	-0.329324	-0.903282	-0.716906	-1.00498	0.36266	0.722753	0.44912	0.654428	-0.595338	1.07107	-0.27965	-0.796299	0.860797	0.352896
0.658342	0.594542	-0.672206	0.678227	0.540226	0.660018	-0.629445	0.524619	0.598721	0.692933	-0.68431	0.623364	0.588477	-0.647338	-0.576703	0.634613	-0.592515	0.660707	-0.649061	-0.549431	-0.717711	-0.625955	0.678486	0.586351	0.647957	0.660115	-0.587008	0.577759	-0.681723	-0.621136	0.574096	0.624395
0.596161	0.537437	-0.686635	0.361422	0.868626	0.678306	-0.788913	0.428921	0.605829	0.800746	-1.1055	0.129035	0.627266	-0.660065	-0.751722	0.535097	-0.525433	0.655406	-0.790197	-0.783584	-0.659495	-0.571144	0.67286	0.697354	0.599622	0.607372	-0.753267	0.533852	-0.687814	-0.722004	0.71516	0.421381
0.626071	0.675472	-0.768377	0.619722	0.602738	0.730136	-0.590933	0.713143	0.708401	0.490895	-0.729809	0.760278	0.494982	-0.483516	-0.591211	0.703252	-0.6351	0.541853	-0.666317	-0.729796	-0.606123	-0.514034	0.580557	0.70379	0.55721	0.680635	-0.745804	0.678182	-0.714593	-0.686656	0.541865	0.67287
0.677679	0.588778	-0.618073	0.627946	0.626066	0.562208	-0.646271	0.598499	0.660685	0.734793	-0.729027	0.555976	0.682447	-0.560944	-0.520209	0.49729	-0.615544	0.636569	-0.596974	-0.662351	-0.737298	-0.556544	0.574129	0.601983	0.635147	0.725784	-0.613641	0.5667	-0.665607	-0.636241	0.665234	0.633125
0.637196	0.550179	-0.702603	0.669561	0.67688	0.539066	-0.624957	0.590302	0.640055	0.71012	-0.619182	0.655352	0.5926	-0.559417	-0.663189	0.586568	-0.588515	0.631596	-0.554841	-0.639104	-0.677288	-0.724926	0.630112	0.634461	0.586295	0.54451	-0.541754	0.593827	-0.625043	-0.603896	0.591274	0.583996
0.59448	0.534323	-0.576036	0.570933	0.760174	0.631161	-0.622823	0.656559	0.566027	0.683778	-0.657066	0.592831	0.765428	-0.581086	-0.709023	0.546768	-0.629663	0.545093	-0.624965	-0.571519	-0.675871	-0.602577	0.62812	0.677553	0.729344	0.595588	-0.602369	0.70463	-0.573848	-0.486581	0.601574	0.661448
0.717297	0.567059	-0.722626	0.56817	0.499825	0.566213	-0.618111	0.663017	0.627723	0.637461	-0.768623	0.833455	0.64816	-0.64045	-0.593316	0.681946	-0.606824	0.720503	-0.560136	-0.545003	-0.712249	-0.761214	0.558022	0.664528	0.616355	0.607589	-0.558203	0.587096	-0.672278	-0.643617	0.529937	0.714512
0.68608	0.636779	-0.785432	0.651013	0.523052	0.610856	-0.628663	0.709924	0.57248	0.462768	-0.49468	0.656114	0.672161	-0.626768	-0.539923	0.788078	-0.72174	0.484083	-0.485834	-0.583651	-0.911882	-0.688734	0.482187	0.645182	0.779587	0.732271	-0.581028	0.764133	-0.664787	-0.682936	0.625084	0.517843
0.736533	0.752822	-0.350445	0.394395	0.660339	0.613077	-0.697242	0.839313	0.790758	-0.0777291	-0.814884	0.7057	0.640902	-0.50054	-0.781446	0.508672	-0.891438	0.77937	-0.487439	-0.633691	0.0822256	-0.633616	0.831893	0.983107	0.740884	0.372027	-0.813752	0.594668	-0.525145	-0.446977	0.884673	0.935692
0.617746	0.685903	-0.566507	0.62264	0.618613	0.674083	-0.710406	0.400121	0.727369	0.844964	-0.663184	0.592815	0.458463	-0.595725	-0.510056	0.684304	-0.580713	0.682885	-0.653696	-0.532636	-0.726244	-0.811415	0.694369	0.513557	0.599611	0.516831	-0.651313	0.625974	-0.557648	-0.585102	0.647993	0.588511
0.585976	0.632794	-0.546035	0.651466	0.672994	0.532451	-0.606495	0.620856	0.766862	0.663498	-0.661119	0.793267	0.484509	-0.57874	-0.602841	0.518186	-0.704021	0.692669	-0.612935	-0.618002	-0.849966	-0.651023	0.601814	0.659384	0.546187	0.73348	-0.541533	0.573545	-0.597697	-0.525193	0.669088	0.621581
0.598927	0.600748	-0.606964	0.68572	0.583334	0.557477	-0.553145	0.625632	0.596836	0.791179	-0.693553	0.932122	0.692583	-0.649947	-0.533667	0.545152	-0.619644	0.536188	-0.652863	-0.591084	-0.666614	-0.690338	0.598616	0.582948	0.538213	0.670797	-0.571326	0.673999	-0.583051	-0.54735	0.610989	0.6844
0.517967	0.615044	-0.59354	0.722354	0.566916	0.628143	-0.513099	0.701372	0.690953	0.7302	-0.534675	0.915178	0.645709	-0.557096	-0.561673	0.595188	-0.586009	0.600063	-0.646281	-0.498853	-0.723231	-0.634718	0.653016	0.585175	0.610927	0.715361	-0.574195	0.56544	-0.620344	-0.519981	0.614291	0.552412
0.71064	0.650087	-0.754306	0.552229	0.548954	0.603037	-0.552777	0.694993	0.681619	0.554209	-0.529714	0.869455	0.606955	-0.468176	-0.53027	0.598166	-0.620088	0.661937	-0.603062	-0.674658	-0.700205	-0.580131	0.560734	0.720215	0.513454	0.638331	-0.469962	0.672793	-0.713126	-0.705574	0.672159	0.648825
0.540877	0.624188	-0.61737	0.597914	0.66378	0.588883	-0.573933	0.667269	0.512431	0.651449	-0.713877	0.724855	0.644886	-0.647415	-0.584693	0.640046	-0.6344	0.611338	-0.578298	-0.620451	-0.637331	-0.530739	0.569786	0.557262	0.649841	0.668852	-0.637359	0.602303	-0.655023	-0.695305	0.549568	0.557377
0.687249	0.64189	-0.682805	0.646554	0.58773	0.596636	-0.554467	0.655463	0.54787	0.848167	-0.555589	0.652248	0.600312	-0.54751	-0.646973	0.631588	-0.55543	0.651901	-0.612357	-0.558873	-0.773139	-0.673324	0.545981	0.662026	0.583508	0.607329	-0.671411	0.586445	-0.626423	-0.66106	0.527475	0.508196
0.56044	0.605237	-0.688075	0.627189	0.645759	0.613894	-0.630255	0.54021	0.620365	0.728298	-0.739771	0.437117	0.527066	-0.573268	-0.507016	0.659539	-0.647254	0.693168	-0.668218	-0.606793	-0.784374	-0.721219	0.683287	0.564004	0.522605	0.619941	-0.521557	0.694456	-0.578106	-0.600275	0.682547	0.668818
0.602553	0.650286	-0.739393	0.641092	0.682493	0.57069	-0.578792	0.573266	0.728126	0.730055	-0.80316	0.803783	0.626245	-0.588471	-0.644939	0.552844	-0.562867	0.543062	-0.578369	-0.589669	-0.838434	-0.708025	0.521218	0.575481	0.563735	0.697853	-0.526118	0.532602	-0.64372	-0.674019	0.565017	0.668554
0.539213	0.540241	-0.709235	0.799537	0.748466	0.494688	-0.494197	0.73074	0.641777	0.672901	-0.656572	0.648055	0.561069	-0.620074	-0.700138	0.699996	-0.640591	0.702497	-0.580838	-0.683607	-0.638196	-0.6183	0.579601	0.604252	0.520007	0.606731	-0.603619	0.658634	-0.566115	-0.639692	0.748127	0.692802
0.629041	0.551446	-0.441948	0.711462	0.654862	0.684254	-0.530743	0.56287	0.647864	0.695092	-0.772663	0.702045	0.676776	-0.646192	-0.548826	0.523	-0.704165	0.659266	-0.517809	-0.525966	-0.723918	-0.778517	0.585104	0.589539	0.660456	0.753952	-0.684739	0.580482	-0.595109	-0.537405	0.529295	0.686382
0.505405	0.712324	-0.710884	0.449058	0.613761	0.682117	-0.541064	0.656387	0.583398	0.621324	-0.435882	0.89005	0.642267	-0.707989	-0.565131	0.568427	-0.716326	0.669308	-0.551861	-0.665006	-0.542022	-0.714816	0.578	0.649356	0.633957	0.655423	-0.55152	0.685416	-0.634979	-0.609672	0.638301	0.605172
0.59559	0.467792	-0.56471	0.67034	0.530672	0.542424	-0.547249	0.683388	0.689171	0.617182	-0.726327	0.737872	0.687625	-0.655364	-0.492898	0.59541	-0.635624	0.656333	-0.621553	-0.595132	-0.777736	-0.591584	0.65445	0.567332	0.576104	0.66465	-0.617979	0.612591	-0.639911	-0.640248	0.540132	0.668195
0.544742	0.557782	-0.623178	0.645976	0.618276	0.57224	-0.657851	0.528056	0.642838	0.67317	-0.633089	0.730689	0.692612	-0.642378	-0.632459	0.627805	-0.610447	0.662095	-0.535625	-0.654551	-0.702158	-0.565642	0.537937	0.582054	0.667184	0.697995	-0.610341	0.593004	-0.534313	-0.63795	0.628567	0.539802
0.536428	0.543053	-0.604233	0.73297	0.674837	0.685943	-0.687279	0.613468	0.794321	0.581683	-0.896165	0.253655	0.641668	-0.531236	-0.711662	0.610886	-0.663766	0.49314	-0.699783	-0.681374	-0.745581	-0.729898	0.544662	0.536557	0.69466	0.586906	-0.554616	0.695116	-0.585573	-0.669225	0.619585	0.663003
0.644034	0.655832	-0.618939	0.573783	0.684309	0.512248	-0.516504	0.567799	0.646426	0.808605	-0.573863	0.818974	0.615239	-0.63744	-0.562333	0.636996	-0.663437	0.621899	-0.55943	-0.595424	-0.675322	-0.716512	0.63895	0.48576	0.617142	0.641791	-0.614809	0.634984	-0.543015	-0.529291	0.586496	0.637342
0.738931	0.511767	-0.529989	0.65336	0.709704	0.532028	-0.67157	0.534366	0.549984	0.55579	-0.605573	0.888567	0.623132	-0.714557	-0.652821	0.682802	-0.592795	0.518356	-0.564954	-0.721605	-0.869212	-0.772942	0.468767	0.535251	0.554423	0.737234	-0.661328	0.724895	-0.652068	-0.678761	0.73285	0.588996
0.554834	0.508734	-0.659904	0.7031	0.597824	0.628243	-0.674513	0.625777	0.671199	0.643352	-0.561573	0.931677	0.489436	-0.684211	-0.523653	0.508363	-0.545855	0.612878	-0.574953	-0.692245	-0.660111	-0.689819	0.696261	0.661938	0.660444	0.68198	-0.551067	0.662242	-0.668076	-0.663849	0.564063	0.702551
0.578857	0.514179	-0.673817	0.701966	0.659614	0.677774	-0.654701	0.710249	0.542032	0.654625	-0.702595	0.527016	0.653899	-0.567085	-0.693776	0.708633	-0.542746	0.704138	-0.599955	-0.513021	-0.618136	-0.687897	0.582643	0.556481	0.548464	0.71122	-0.615107	0.566006	-0.538371	-0.634047	0.667801	0.704888
0.680346	0.616124	-0.541119	0.584096	0.737534	0.636754	-0.56431	0.638857	0.552628	0.617912	-0.686272	0.923129	0.623817	-0.57443	-0.551747	0.568668	-0.638823	0.674531	-0.572561	-0.655665	-0.82365	-0.67141	0.653116	0.63787	0.626305	0.499253	-0.623125	0.669519	-0.653127	-0.595874	0.568846	0.69088
0.645012	0.687483	-0.544191	0.680397	0.71327	0.784611	-0.647576	0.635125	0.741622	0.794014	-0.53681	0.609208	0.511812	-0.58735	-0.502712	0.618628	-0.561227	0.588744	-0.707588	-0.591688	-0.396309	-0.681191	0.553899	0.507256	0.554089	0.705472	-0.749664	0.760878	-0.594868	-0.677451	0.700002	0.552553
0.543669	0.651881	-0.602979	0.70862	0.656674	0.691438	-0.558993	0.562764	0.596067	0.592244	-0.608987	0.6829	0.610664	-0.639531	-0.582478	0.544838	-0.668335	0.543599	-0.582108	-0.604409	-0.567092	-0.708174	0.62399	0.574168	0.603744	0.575937	-0.677816	0.564086	-0.667277	-0.654503	0.676235	0.549051
0.618203	0.581599	-0.64729	0.539692	0.651353	0.523888	-0.662292	0.656652	0.753204	0.598225	-0.5553	0.644761	0.664116	-0.589941	-0.556018	0.625031	-0.526839	0.499554	-0.544208	-0.645849	-0.757828	-0.670703	0.632754	0.563746	0.653291	0.682353	-0.55101	0.704956	-0.618682	-0.62731	0.603738	0.636357
0.602177	0.704171	-0.586267	0.657444	0.617377	0.60952	-0.545408	0.64089	0.571193	0.693508	-0.661005	0.665226	0.663106	-0.702276	-0.621389	0.64167	-0.707562	0.622214	-0.463977	-0.454186	-0.773505	-0.652927	0.625377	0.597531	0.727144	0.642608	-0.683158	0.506767	-0.709523	-0.57808	0.639645	0.707553
0.684406	0.579867	-0.551156	0.730618	0.703037	0.629371	-0.534591	0.615461	0.712555	0.808103	-0.682776	0.946196	0.579997	-0.604713	-0.580098	0.569964	-0.644372	0.577386	-0.557184	-0.651533	-0.769052	-0.63134	0.556145	0.645728	0.58897	0.613791	-0.543155	0.59734	-0.573289	-0.632648	0.521769	0.550579
0.614306	0.584868	-0.587014	0.657774	0.629107	0.574644	-0.518821	0.627935	0.610012	0.775595	-0.603445	0.939058	0.576486	-0.550554	-0.58103	0.603155	-0.621075	0.605643	-0.511214	-0.522209	-0.813132	-0.610811	0.601681	0.583061	0.656939	0.570395	-0.670978	0.655503	-0.617601	-0.665727	0.662583	0.594777
0.601903	0.591037	-0.66243	0.586642	0.6668	0.686863	-0.65987	0.517666	0.645757	0.653268	-0.574995	0.911723	0.656713	-0.610867	-0.654618	0.714836	-0.550585	0.540602	-0.627777	-0.582607	-0.686074	-0.562989	0.601587	0.685891	0.613709	0.65134	-0.641958	0.528218	-0.560641	-0.604688	0.617395	0.594879
0.63571	0.633174	-0.516336	0.557144	0.582482	0.646281	-0.583129	0.595098	0.69036	0.63957	-0.714359	0.902267	0.584562	-0.649086	-0.622335	0.59505	-0.595068	0.563289	-0.58123	-0.602423	-0.669136	-0.710415	0.550506	0.649068	0.64269	0.584876	-0.635024	0.646827	-0.665372	-0.571117	0.583746	0.653304
0.54937	0.585916	-0.462421	0.682145	0.728732	0.735424	-0.641181	0.772243	0.578276	0.87066	-0.537237	0.837963	0.737652	-0.688463	-0.659594	0.52678	-0.692167	0.572127	-0.686565	-0.738861	-0.545937	-0.637327	0.618931	0.631805	0.658201	0.592506	-0.526768	0.692863	-0.599692	-0.541668	0.544685	0.721903
0.637906	0.549008	-0.602239	0.643752	0.663385	0.555347	-0.595063	0.49226	0.71654	0.715036	-0.563847	0.767081	0.686589	-0.564035	-0.606729	0.596671	-0.515452	0.67437	-0.641705	-0.583825	-0.689113	-0.624232	0.633606	0.548058	0.627909	0.661041	-0.575472	0.62103	-0.569826	-0.552896	0.574516	0.664708
0.613002	0.523623	-0.432646	0.77612	0.730145	0.65597	-0.512828	0.703469	0.626541	0.793157	-0.790051	0.429588	0.853034	-0.710144	-0.724157	0.713552	-0.578225	0.564195	-0.652631	-0.715649	-0.676501	-0.712047	0.713612	0.571953	0.598746	0.516828	-0.51791	0.76403	-0.749412	-0.595351	0.626382	0.596896
0.619936	0.499622	-0.457288	0.654288	0.53478	0.687125	-0.507009	0.6268	0.573472	0.661387	-0.677145	0.439463	0.729415	-0.64801	-0.591535	0.667708	-0.693975	0.675253	-0.58963	-0.716782	-0.880875	-0.701739	0.716071	0.522005	0.50333	0.706173	-0.682708	0.595439	-0.687176	-0.616363	0.625717	0.709813
0.724871	0.668449	-0.469118	0.612772	0.564719	0.687973	-0.682199	0.719865	0.718853	0.762243	-0.399712	0.600177	0.561556	-0.58609	-0.539301	0.660294	-0.705779	0.676189	-0.539909	-0.573292	-0.62635	-0.647169	0.52693	0.639856	0.495742	0.779289	-0.542681	0.621034	-0.611524	-0.672573	0.548482	0.517838
0.486293	0.681208	-0.641241	0.650096	0.672191	0.637851	-0.519875	0.630785	0.60923	0.658223	-0.64089	0.891529	0.667914	-0.545496	-0.519504	0.579255	-0.650575	0.542577	-0.585331	-0.527519	-0.618102	-0.749814	0.605499	0.687424	0.707616	0.609717	-0.631804	0.621558	-0.69528	-0.680857	0.564611	0.598059
0.600064	0.53445	-0.587915	0.700128	0.666239	0.59736	-0.593823	0.633568	0.636921	0.6381	-0.543329	0.70478	0.71122	-0.563506	-0.577837	0.624773	-0.571494	0.650222	-0.506745	-0.595557	-0.721087	-0.535758	0.609028	0.67564	0.692697	0.643398	-0.543274	0.620441	-0.626653	-0.594274	0.571616	0.591147
0.573534	0.552907	-0.556649	0.675458	0.629075	0.576974	-0.633253	0.623906	0.589767	0.629754	-0.71209	0.529214	0.627712	-0.613654	-0.681976	0.607434	-0.586568	0.667176	-0.598446	-0.676138	-0.679723	-0.687898	0.65236	0.600188	0.669602	0.674037	-0.682425	0.650754	-0.576021	-0.565241	0.644843	0.657106
0.6161	0.654792	-0.641488	0.561877	0.670459	0.528238	-0.595898	0.567666	0.700068	0.684734	-0.689312	0.79994	0.572339	-0.606821	-0.523057	0.651558	-0.607436	0.653439	-0.553721	-0.5937	-0.633849	-0.666181	0.637607	0.651858	0.671367	0.652247	-0.514584	0.541454	-0.644041	-0.660579	0.575409	0.646485
0.619328	0.590202	-0.678109	0.576917	0.649717	0.606647	-0.542704	0.692731	0.543104	0.587032	-0.724633	0.741735	0.5472	-0.627065	-0.585556	0.591115	-0.633244	0.630251	-0.560568	-0.549789	-0.56742	-0.712646	0.679487	0.571447	0.648992	0.622166	-0.582383	0.574878	-0.592424	-0.598012	0.660602	0.639555
0.605347	0.526197	-0.656195	0.722596	0.574832	0.670732	-0.662856	0.613051	0.713089	0.695967	-0.597874	0.906795	0.577172	-0.647413	-0.617178	0.607564	-0.668457	0.550622	-0.65321	-0.531441	-0.647957	-0.596722	0.617107	0.566008	0.667258	0.716307	-0.532502	0.606983	-0.599263	-0.527354	0.590763	0.614702
0.635412	0.644647	-0.527655	0.611586	0.748025	0.575515	-0.513685	0.493098	0.545784	0.711281	-0.748821	0.840701	0.579725	-0.689227	-0.662475	0.603334	-0.556346	0.613732	-0.681359	-0.680731	-0.847405	-0.587601	0.677731	0.533516	0.497487	0.677684	-0.596498	0.73817	-0.53142	-0.600309	0.564124	0.57755
0.62664	0.598729	-0.677194	0.605231	0.728314	0.675468	-0.557358	0.712431	0.63144	0.689971	-0.584371	0.413253	0.635085	-0.675572	-0.562793	0.673626	-0.64264	0.626762	-0.668729	-0.552035	-0.704552	-0.591842	0.693255	0.635646	0.661255	0.615567	-0.626806	0.731252	-0.563602	-0.548772	0.669596	0.684942
0.62548	0.539632	-0.482531	0.687281	0.656041	0.689642	-0.533841	0.557216	0.59757	0.551704	-0.647976	0.924183	0.574833	-0.601409	-0.674129	0.560044	-0.562179	0.646096	-0.553423	-0.52989	-0.830134	-0.746506	0.588988	0.559993	0.55587	0.739177	-0.577253	0.67455	-0.585519	-0.536683	0.623648	0.610933
0.585456	0.616218	-0.643122	0.59773	0.735464	0.652879	-0.661479	0.63201	0.700581	0.755961	-0.543987	0.699665	0.749175	-0.617403	-0.674148	0.659376	-0.593951	0.622418	-0.66221	-0.669122	-0.78215	-0.632573	0.524059	0.637416	0.529007	0.575535	-0.510467	0.640761	-0.694049	-0.506785	0.727673	0.597966
0.670861	0.587878	-0.66598	0.613151	0.682377	0.596856	-0.534382	0.655351	0.694064	0.584036	-0.609963	0.76702	0.618278	-0.65405	-0.548255	0.619434	-0.555844	0.677905	-0.656463	-0.535635	-0.651511	-0.568167	0.551914	0.532094	0.580657	0.645495	-0.636693	0.584129	-0.615313	-0.587448	0.666589	0.509747
0.701137	0.578036	-0.682348	0.731637	0.615375	0.636888	-0.643098	0.658032	0.67945	0.701592	-0.751944	0.731033	0.676629	-0.605986	-0.498837	0.590456	-0.694808	0.586503	-0.585452	-0.549487	-0.696385	-0.543943	0.524539	0.611382	0.616612	0.708573	-0.621234	0.557839	-0.564354	-0.622393	0.508353	0.622833
0.656057	0.601627	-0.569273	0.644104	0.759872	0.708414	-0.504473	0.688855	0.601953	0.550705	-0.68909	0.9032	0.631306	-0.691809	-0.667931	0.606083	-0.762261	0.514866	-0.58733	-0.612602	-0.604908	-0.6346	0.638287	0.658611	0.615456	0.587846	-0.641163	0.669705	-0.609351	-0.607794	0.678218	0.601956
0.672896	0.665305	-0.522828	0.684399	0.652507	0.493161	-0.63307	0.6427	0.610129	0.829474	-0.597831	0.744854	0.62642	-0.536332	-0.566795	0.540058	-0.701779	0.55023	-0.569657	-0.607372	-0.671932	-0.691465	0.61029	0.677013	0.649061	0.585934	-0.594077	0.52661	-0.576288	-0.570909	0.583543	0.5386
0.525941	0.547168	-0.641602	0.626339	0.715728	0.663927	-0.617138	0.509062	0.537911	0.787495	-0.679486	0.937335	0.659481	-0.59003	-0.532554	0.608464	-0.691175	0.48419	-0.602112	-0.620863	-0.762505	-0.644777	0.57181	0.652193	0.580776	0.580339	-0.558645	0.647256	-0.538127	-0.626609	0.510738	0.669853
0.647883	0.533608	-0.654699	0.704057	0.721237	0.692512	-0.588241	0.546866	0.574674	0.598643	-0.773217	0.94516	0.712901	-0.624733	-0.547528	0.541077	-0.662386	0.625299	-0.585509	-0.556035	-0.693708	-0.642179	0.674955	0.520878	0.602674	0.765411	-0.659141	0.525668	-0.577874	-0.681848	0.633383	0.563946
0.605788	0.595607	-0.572099	0.593086	0.576873	0.591391	-0.536474	0.630554	0.632659	0.637482	-0.661911	0.680745	0.685312	-0.656031	-0.565846	0.583815	-0.658381	0.533	-0.669602	-0.525036	-0.716533	-0.657421	0.65787	0.609734	0.562847	0.711494	-0.627111	0.631998	-0.591647	-0.597719	0.566761	0.635911
0.695467	0.565363	-0.674993	0.750834	0.73723	0.587496	-0.550082	0.579616	0.620206	0.667044	-0.741042	0.804722	0.558604	-0.594122	-0.587195	0.547706	-0.643297	0.622054	-0.605845	-0.664123	-0.630868	-0.637253	0.580624	0.657311	0.483707	0.66325	-0.520476	0.608654	-0.639727	-0.514911	0.552263	0.716386
0.68875	0.644012	-0.627876	0.749506	0.689565	0.724899	-0.538212	0.67768	0.610443	0.791983	-0.674397	0.80292	0.581086	-0.693102	-0.698119	0.703322	-0.478252	0.604385	-0.594084	-0.529339	-0.511545	-0.669372	0.495645	0.563254	0.64358	0.569792	-0.717811	0.600054	-0.562818	-0.547444	0.635763	0.643507
0.572671	0.746581	-0.695538	0.745503	0.607636	0.711752	-0.549318	0.567763	0.620519	0.517543	-0.762271	0.676291	0.745068	-0.552888	-0.579529	0.547223	-0.631814	0.592663	-0.539853	-0.659781	-0.889959	-0.676835	0.477332	0.683191	0.540444	0.757552	-0.661953	0.538641	-0.657533	-0.657954	0.703596	0.741586
0.531743	0.59138	-0.676454	0.656391	0.620064	0.561255	-0.604299	0.538579	0.708242	0.657262	-0.639229	0.796949	0.625636	-0.529177	-0.584589	0.64346	-0.628651	0.575162	-0.630583	-0.642473	-0.740135	-0.541409	0.638341	0.668371	0.688168	0.618027	-0.521462	0.662458	-0.660049	-0.602383	0.633707	0.646846
0.661262	0.663408	-0.871521	0.526874	0.632259	0.863468	-0.351824	0.296287	0.902189	0.078586	-0.5248	0.87008	0.4009	-0.538717	-0.54442	0.81785	-0.530925	0.735338	-0.882792	-0.642734	-0.588286	-0.52934	0.782615	0.339471	0.825085	0.037055	-0.656263	0.52576	-0.697571	-0.532816	0.792844	0.951041
0.492671	0.590365	-0.774075	0.608264	0.734902	0.677307	-0.811497	0.579869	0.566088	0.525353	-0.915132	0.114105	0.843594	-0.728101	-0.60399	0.532709	-0.507528	0.392908	-0.619644	-0.587453	-0.763208	-0.735537	0.351146	0.798149	0.544954	0.751823	-0.469952	0.560296	-0.729527	-0.671767	0.743761	0.724067
0.55291	0.57242	-0.592936	0.621748	0.65385	0.547275	-0.579605	0.561321	0.692651	0.554691	-0.688674	0.768022	0.569671	-0.638011	-0.585665	0.601568	-0.555608	0.667994	-0.58454	-0.607112	-0.811462	-0.636594	0.675966	0.594065	0.582215	0.587893	-0.684809	0.634438	-0.690157	-0.6076	0.721504	0.674438
0.688252	0.624616	-0.646178	0.578994	0.641399	0.575469	-0.549406	0.71061	0.53809	0.580164	-0.529192	0.73062	0.63996	-0.635101	-0.587743	0.642485	-0.617016	0.604158	-0.575733	-0.637197	-0.757071	-0.686224	0.572574	0.665199	0.624002	0.749642	-0.678008	0.583938	-0.568912	-0.646635	0.737187	0.728314
0.697558	0.560822	-0.692007	0.585797	0.725921	0.560353	-0.699197	0.652088	0.609833	0.691005	-0.782693	0.509755	0.775248	-0.546866	-0.653897	0.682917	-0.524461	0.697472	-0.652241	-0.689825	-0.727373	-0.779288	0.559236	0.660945	0.512868	0.75399	-0.540785	0.685264	-0.579042	-0.683787	0.590227	0.533578
0.640626	0.586794	-0.592786	0.575885	0.619683	0.606779	-0.653382	0.670787	0.634541	0.598742	-0.636356	0.907318	0.680629	-0.628155	-0.637687	0.681907	-0.573985	0.640409	-0.538081	-0.53168	-0.623425	-0.654149	0.622882	0.668011	0.596498	0.569367	-0.640485	0.571999	-0.64799	-0.59226	0.518316	0.614027
0.664171	0.50266	-0.729618	0.556016	0.542599	0.522028	-0.612508	0.68358	0.541221	0.759584	-0.679135	0.701505	0.621226	-0.564065	-0.628628	0.552379	-0.682224	0.666902	-0.705962	-0.627604	-0.946777	-0.650625	0.603595	0.611069	0.685083	0.628696	-0.629715	0.670277	-0.582434	-0.559807	0.540165	0.572934
0.549057	0.527548	-0.766416	0.697956	0.622765	0.586261	-0.52985	0.580838	0.623453	0.770884	-0.65185	0.849498	0.69265	-0.602939	-0.705876	0.63388	-0.574324	0.631417	-0.505572	-0.535787	-0.523497	-0.676728	0.583541	0.570577	0.580755	0.703284	-0.650757	0.5558	-0.68463	-0.649424	0.550835	0.572563
0.634777	0.606394	-0.591485	0.709634	0.60452	0.571265	-0.575561	0.659882	0.668145	0.777143	-0.724937	0.789849	0.572789	-0.61713	-0.616875	0.618875	-0.586997	0.595803	-0.667344	-0.631931	-0.840497	-0.521868	0.671698	0.56513	0.565564	0.601938	-0.527516	0.666536	-0.617029	-0.607012	0.560485	0.657584
0.696188	0.651002	-0.691555	0.690131	0.616655	0.565873	-0.554907	0.568613	0.654459	0.697172	-0.793294	0.737224	0.630794	-0.547057	-0.560492	0.720099	-0.514448	0.680179	-0.652609	-0.571443	-0.635135	-0.595725	0.715308	0.568871	0.635438	0.6429	-0.545447	0.673875	-0.631598	-0.723004	0.51932	0.518382
0.663337	0.674467	-0.6198	0.627103	0.588384	0.510758	-0.64589	0.68282	0.689609	0.671087	-0.68485	0.74548	0.686677	-0.549977	-0.566618	0.659759	-0.666557	0.516001	-0.492831	-0.690033	-0.804262	-0.656247	0.510643	0.599896	0.576293	0.58131	-0.626882	0.51781	-0.579908	-0.683651	0.666675	0.540843
0.598718	0.712717	-0.690843	0.642195	0.661219	0.659061	-0.626297	0.476046	0.603134	0.701954	-0.510145	0.679904	0.59582	-0.552896	-0.664207	0.634167	-0.548996	0.583109	-0.613184	-0.5616	-0.758624	-0.579572	0.571829	0.534455	0.701098	0.702608	-0.504013	0.642114	-0.641305	-0.683341	0.555761	0.550039
0.655886	0.568502	-0.768874	0.719215	0.706501	0.673223	-0.562806	0.652781	0.589884	0.731939	-0.747046	0.520851	0.748765	-0.526182	-0.58084	0.613318	-0.53606	0.622142	-0.579171	-0.684043	-0.694663	-0.591581	0.597258	0.560102	0.581282	0.721734	-0.685911	0.556277	-0.594659	-0.607565	0.64251	0.624
0.519387	0.547216	-0.692971	0.742451	0.639024	0.667488	-0.56353	0.542298	0.660494	0.678719	-0.665945	0.894975	0.627444	-0.517971	-0.693461	0.547476	-0.575499	0.541271	-0.566419	-0.650248	-0.793427	-0.670562	0.606473	0.648572	0.660294	0.61058	-0.662161	0.537174	-0.614634	-0.637613	0.625561	0.540664
0.6912	0.551113	-0.738696	0.625768	0.561204	0.568369	-0.629095	0.498717	0.711717	0.75627	-0.52116	0.630254	0.559847	-0.652975	-0.55137	0.530562	-0.592886	0.563018	-0.60688	-0.692326	-0.850821	-0.66218	0.70334	0.641885	0.63325	0.633719	-0.647044	0.527087	-0.527638	-0.686598	0.677869	0.690652
0.596189	0.675257	-0.6528	0.758036	0.709849	0.641175	-0.651142	0.669554	0.642488	0.69374	-0.73266	0.941245	0.666574	-0.687212	-0.496327	0.625021	-0.595243	0.512956	-0.50829	-0.564892	-0.744084	-0.532109	0.524762	0.624585	0.661337	0.564199	-0.499912	0.536406	-0.640895	-0.54138	0.530075	0.59734
0.559308	0.529557	-0.65569	0.69709	0.734484	0.544021	-0.654246	0.591505	0.691996	0.443987	-0.596861	0.668785	0.609497	-0.599141	-0.586707	0.566716	-0.601501	0.67581	-0.592601	-0.663298	-0.848666	-0.501654	0.671874	0.564312	0.724744	0.591569	-0.560347	0.632114	-0.656797	-0.671532	0.657922	0.586185
0.684534	0.825782	-0.604581	0.714946	0.798089	0.580759	-0.613115	0.630374	0.685051	0.058873	-0.36121	0.994244	0.568465	-0.682031	-0.493537	0.668143	-0.433079	0.599809	-0.64246	-0.571746	-1.01826	-0.666456	0.850494	0.687847	0.791254	0.715858	-0.746884	0.676501	-0.567937	-0.580945	0.71399	0.674991
0.636288	0.566912	-0.637539	0.745193	0.57999	0.718962	-0.532097	0.54941	0.719076	0.666239	-0.584875	0.86349	0.620626	-0.68851	-0.61526	0.702553	-0.613839	0.56137	-0.669435	-0.546167	-0.495561	-0.596949	0.71878	0.526024	0.545065	0.528418	-0.749971	0.726007	-0.698788	-0.622585	0.648711	0.682086
0.61145	0.670512	-0.722741	0.726861	0.607089	0.667544	-0.615628	0.53627	0.750047	0.792218	-0.689285	0.867567	0.683115	-0.669451	-0.62405	0.565589	-0.597436	0.584015	-0.596053	-0.556216	-0.559163	-0.600589	0.554499	0.579214	0.678109	0.733406	-0.554919	0.6165	-0.553212	-0.645559	0.579952	0.682023
0.562976	0.609528	-0.608809	0.737086	0.60956	0.505892	-0.638824	0.600751	0.770042	0.72258	-0.52129	0.646629	0.703979	-0.632046	-0.599146	0.600993	-0.70402	0.677855	-0.587596	-0.539056	-0.717162	-0.587224	0.677626	0.669858	0.714685	0.654306	-0.607745	0.651454	-0.60721	-0.660176	0.575528	0.715804
0.621202	0.531815	-0.618794	0.612727	0.700921	0.585406	-0.549905	0.575995	0.63685	0.772869	-0.620978	0.692366	0.667265	-0.577361	-0.564878	0.642558	-0.569686	0.542531	-0.592306	-0.511565	-0.695199	-0.682067	0.588258	0.649658	0.558116	0.587549	-0.642036	0.643904	-0.691243	-0.584139	0.610916	0.594866
0.697669	0.631381	-0.684126	0.704084	0.542148	0.589703	-0.608157	0.50955	0.603072	0.594951	-0.613825	0.783104	0.733819	-0.668996	-0.567742	0.512054	-0.541619	0.45798	-0.607767	-0.705932	-0.658303	-0.5817	0.699136	0.670232	0.64575	0.680059	-0.686597	0.440022	-0.683427	-0.509487	0.510663	0.546704
0.641324	0.614316	-0.624047	0.634296	0.402372	0.748502	-0.754738	0.576738	0.680431	0.601393	-0.86554	0.31763	0.795141	-0.594926	-0.657732	0.753669	-0.514184	0.618787	-0.797823	-0.685849	-0.634156	-0.727555	0.607912	0.736054	0.660339	0.645647	-0.531782	0.44155	-0.520498	-0.625115	0.692644	0.833964
0.561526	0.650702	-0.568412	0.673244	0.565925	0.707597	-0.738029	0.45805	0.65648	0.75654	-0.796838	0.706078	0.531491	-0.623438	-0.583205	0.670175	-0.444276	0.697387	-0.510122	-0.5706	-0.706771	-0.668142	0.701687	0.571623	0.6969	0.784712	-0.646567	0.705091	-0.747504	-0.661831	0.725354	0.659082
0.618893	0.588115	-0.569426	0.664717	0.718236	0.662098	-0.606348	0.508104	0.647756	0.762466	-0.67899	0.671433	0.599143	-0.662408	-0.621545	0.508164	-0.571116	0.542265	-0.557204	-0.577257	-0.687035	-0.723277	0.629402	0.629451	0.579586	0.634429	-0.563894	0.64466	-0.644365	-0.511317	0.611423	0.653284
0.59328	0.556349	-0.630087	0.663449	0.670659	0.642456	-0.573938	0.542401	0.613712	0.65337	-0.682827	0.828011	0.62312	-0.601483	-0.61133	0.563432	-0.624794	0.565965	-0.583585	-0.601033	-0.707159	-0.608452	0.606129	0.556034	0.594506	0.648949	-0.562774	0.564467	-0.537305	-0.614832	0.623398	0.651814
0.566327	0.494213	-0.779582	0.696001	0.50972	0.691473	-0.564706	0.603232	0.575278	0.574935	-0.725208	0.753668	0.598191	-0.543231	-0.593592	0.554987	-0.677778	0.652303	-0.669649	-0.719867	-0.825887	-0.66321	0.678722	0.596632	0.643986	0.628084	-0.657321	0.674367	-0.684713	-0.666336	0.702752	0.645558
0.510054	0.542919	-0.498998	0.625074	0.688069	0.722116	-0.654217	0.518874	0.697572	0.680831	-0.778383	0.926837	0.758124	-0.630264	-0.556703	0.618899	-0.609541	0.74494	-0.68683	-0.616161	-0.760127	-0.603206	0.577586	0.514122	0.577284	0.570542	-0.596984	0.567946	-0.620726	-0.619023	0.643581	0.570426
0.0499143	0.0360542	0.021977	0.0280263	-0.0318916	0.0384585	-0.0405794	0.0372123	-0.0340242	-0.0456733	-0.0125916	-0.0425569	0.00925509	-0.00995638	0.029234	-0.0428001	0.0245293	-0.0285161	0.0471419	-0.0353075	0.0084156	-0.0366323	-0.0423027	-0.0447161	-0.0354561	-0.0469514	-0.0459011	-0.0384479	-0.0242276	0.0468413	0.0224307	0.037275
0.626808	0.553148	-0.677124	0.665678	0.625496	0.619512	-0.656496	0.595179	0.643889	0.544768	-0.483615	0.684898	0.60063	-0.672713	-0.611235	0.613478	-0.623767	0.590096	-0.651976	-0.623325	-0.725189	-0.575891	0.618762	0.6663	0.60635	0.539735	-0.585934	0.625861	-0.679693	-0.656055	0.566378	0.56964
0.607497	0.713546	-0.576983	0.633324	0.554997	0.770507	-0.608431	0.591862	0.623059	0.503364	-0.510928	0.757329	0.701641	-0.742009	-0.463799	0.585956	-0.73033	0.621085	-0.73829	-0.581046	-0.614222	-0.75644	0.732244	0.819059	0.662302	0.626869	-0.632671	0.571631	-0.597324	-0.563772	0.539355	0.598013
0.531458	0.604056	-0.635339	0.676059	0.734384	0.667616	-0.569399	0.513112	0.571315	0.542008	-0.600572	0.960397	0.607905	-0.608047	-0.544895	0.66722	-0.603099	0.627723	-0.584484	-0.637435	-0.80374	-0.748347	0.579151	0.619261	0.646742	0.584868	-0.534251	0.661427	-0.600735	-0.645798	0.531368	0.584469
0.56156	0.54193	-0.592225	0.713248	0.649104	0.571513	-0.636874	0.627939	0.632348	0.659654	-0.716323	0.871244	0.586152	-0.612846	-0.571452	0.631876	-0.586731	0.643657	-0.572746	-0.565591	-0.641685	-0.661459	0.631151	0.55419	0.564909	0.612016	-0.625809	0.602389	-0.563976	-0.565109	0.602787	0.560139
0.631438	0.697051	-0.780425	0.571132	0.620169	0.548937	-0.578914	0.526931	0.538738	0.762415	-0.534168	0.530762	0.728482	-0.663173	-0.766191	0.593538	-0.641944	0.600384	-0.736346	-0.634492	-0.889284	-0.646477	0.672546	0.606015	0.53848	0.65674	-0.522312	0.641148	-0.666381	-0.58206	0.530738	0.698644
0.616939	0.63014	-0.648955	0.598876	0.728546	0.550593	-0.586799	0.602568	0.601533	0.672439	-0.773772	0.79623	0.576188	-0.58575	-0.578938	0.687349	-0.522983	0.508118	-0.683568	-0.582886	-0.824444	-0.748763	0.624911	0.580221	0.666889	0.746161	-0.640033	0.532647	-0.566046	-0.478955	0.599157	0.448846
0.582781	0.707485	-0.537113	0.610607	0.731106	0.619829	-0.608661	0.609255	0.658961	0.665085	-0.6878	0.648561	0.696533	-0.679993	-0.617128	0.564754	-0.597333	0.574422	-0.575671	-0.447433	-0.581056	-0.620868	0.667843	0.607976	0.69835	0.632806	-0.610844	0.702011	-0.491736	-0.626536	0.57467	0.654901
0.771074	0.775199	-0.802259	0.73907	0.549221	0.656185	-0.591536	0.384173	0.452239	0.785665	-0.655558	0.495932	0.539062	-0.72455	-0.856037	0.636406	-0.782362	0.555907	-0.547656	-0.421482	-0.350951	-0.782792	0.898621	0.757246	0.657018	0.70279	-0.61662	0.669171	-0.659716	-0.698224	0.843225	0.353921
0.620158	0.657828	-0.561182	0.704163	0.756198	0.65841	-0.586419	0.589479	0.636821	0.618347	-0.680586	0.852524	0.533511	-0.530074	-0.553723	0.627675	-0.724653	0.566719	-0.620032	-0.678362	-0.657913	-0.54218	0.601978	0.496497	0.562268	0.705096	-0.622746	0.646189	-0.646194	-0.669699	0.540104	0.571814
0.555289	0.615792	-0.593462	0.699304	0.589228	0.514437	-0.562561	0.676803	0.627752	0.767782	-0.572535	0.513252	0.622013	-0.696241	-0.533401	0.651863	-0.520883	0.529226	-0.631517	-0.645575	-0.674358	-0.698043	0.547697	0.518673	0.645926	0.661226	-0.637841	0.540592	-0.63114	-0.685571	0.644096	0.710622
0.578951	0.607033	-0.609987	0.70835	0.63462	0.587043	-0.582344	0.638504	0.623648	0.678256	-0.665569	0.727254	0.602415	-0.637834	-0.580708	0.566912	-0.560041	0.602829	-0.559922	-0.527889	-0.814191	-0.701298	0.570351	0.625472	0.587533	0.632086	-0.608252	0.576105	-0.593256	-0.539047	0.560772	0.595065
0.725104	0.767185	-0.702362	0.673055	0.719083	0.484611	-0.67784	0.542989	0.654548	0.672171	-0.37282	0.800961	0.605992	-0.587314	-0.655424	0.60565	-0.612391	0.565973	-0.649111	-0.631007	-0.536254	-0.423855	0.582103	0.487915	0.756245	0.784863	-0.626549	0.554133	-0.739308	-0.587055	0.567697	0.695251
0.666294	0.562796	-0.461629	0.608456	0.70927	0.629747	-0.601379	0.524436	0.634794	0.531589	-0.703951	0.804957	0.685719	-0.665296	-0.657978	0.60137	-0.5745	0.575563	-0.587421	-0.557607	-0.680463	-0.68212	0.584773	0.707464	0.669975	0.605099	-0.623416	0.678774	-0.646318	-0.670694	0.563941	0.593016
0.556437	0.591426	-0.682903	0.656036	0.602963	0.540713	-0.634341	0.686927	0.590754	0.647838	-0.658373	0.603291	0.577179	-0.697124	-0.590515	0.643881	-0.532049	0.651681	-0.569956	-0.600183	-0.758245	-0.703967	0.560921	0.558779	0.620051	0.670954	-0.642563	0.669267	-0.598236	-0.673519	0.548672	0.632383
0.584579	0.658561	-0.519499	0.587108	0.638221	0.630055	-0.69208	0.650858	0.708596	0.332925	-0.502547	0.918171	0.744555	-0.612491	-0.697401	0.728241	-0.649607	0.747998	-0.701061	-0.733683	-0.634137	-0.752652	0.696759	0.666835	0.730447	0.673822	-0.642328	0.62669	-0.564709	-0.630853	0.605774	0.651646
0.643307	0.53782	-0.627034	0.639929	0.609869	0.622173	-0.591123	0.600814	0.582727	0.663193	-0.62359	0.723903	0.62313	-0.653296	-0.610831	0.630924	-0.592986	0.602366	-0.515311	-0.505078	-0.702459	-0.579236	0.563352	0.516466	0.638043	0.580632	-0.586783	0.57081	-0.59126	-0.619165	0.577553	0.596048
0.565806	0.531462	-0.463999	0.625677	0.775538	0.58143	-0.577766	0.656676	0.709274	0.644516	-0.671473	0.612472	0.571165	-0.690076	-0.664666	0.565084	-0.71237	0.649354	-0.634662	-0.507786	-0.874254	-0.650493	0.683795	0.662468	0.565932	0.677786	-0.581667	0.629032	-0.658907	-0.523555	0.627641	0.601512
0.573081	0.589282	-0.486534	0.708912	0.693283	0.576875	-0.569971	0.685495	0.594456	0.617368	-0.718669	0.599975	0.703416	-0.560665	-0.559792	0.579878	-0.679113	0.537799	-0.66374	-0.579431	-0.769011	-0.570625	0.584357	0.583179	0.584315	0.652512	-0.663039	0.726941	-0.586437	-0.560426	0.638395	0.656306
0.58333	0.533825	-0.645565	0.619077	0.731072	0.575661	-0.673546	0.620047	0.556267	0.710409	-0.646524	0.971743	0.666162	-0.61948	-0.521064	0.53295	-0.546809	0.668682	-0.6724	-0.637731	-0.726477	-0.687171	0.703122	0.648998	0.67039	0.640904	-0.596948	0.581905	-0.585307	-0.716698	0.699679	0.510159
0.598567	0.547905	-0.592204	0.670847	0.633364	0.577221	-0.541159	0.609332	0.603843	0.601865	-0.67519	0.831247	0.632363	-0.591236	-0.654011	0.623206	-0.60925	0.699415	-0.647896	-0.679072	-0.824296	-0.598555	0.657995	0.652069	0.628542	0.601661	-0.56456	0.612591	-0.566141	-0.552664	0.651916	0.618133
0.53323	0.652015	-0.540524	0.717543	0.673804	0.543248	-0.691637	0.693671	0.559533	0.748952	-0.454759	0.95106	0.61856	-0.685306	-0.51642	0.609995	-0.724084	0.508459	-0.672197	-0.556739	-0.800894	-0.60151	0.545389	0.554055	0.572666	0.657512	-0.672653	0.65168	-0.605727	-0.486531	0.563487	0.615932
0.573834	0.584534	-0.676724	0.634684	0.659998	0.679273	-0.657421	0.661271	0.641718	0.768105	-0.527354	0.771027	0.65575	-0.585464	-0.575593	0.624009	-0.634145	0.572817	-0.660263	-0.571666	-0.628589	-0.664611	0.571289	0.576065	0.587361	0.593183	-0.52943	0.635066	-0.675605	-0.583816	0.605244	0.551815
0.589373	0.507835	-0.535403	0.578544	0.687427	0.64732	-0.554101	0.633536	0.558557	0.592667	-0.632802	0.853624	0.709115	-0.592431	-0.657476	0.608756	-0.667065	0.65501	-0.656029	-0.531735	-0.70884	-0.718775	0.576008	0.648677	0.586521	0.696382	-0.652432	0.538189	-0.506327	-0.663311	0.574101	0.633739
0.598958	0.718766	-0.671592	0.68824	0.648059	0.670811	-0.648537	0.52936	0.681708	0.719241	-0.588038	0.839645	0.621322	-0.669671	-0.440308	0.550628	-0.586032	0.699683	-0.568806	-0.687682	-0.609451	-0.574489	0.694218	0.724962	0.566538	0.579502	-0.604505	0.613573	-0.609411	-0.641327	0.624788	0.629405
0.72167	0.518285	-0.684295	0.635011	0.629011	0.590009	-0.612924	0.490507	0.668127	0.713085	-0.616047	0.458611	0.651034	-0.603547	-0.575033	0.713919	-0.670172	0.473794	-0.53688	-0.564603	-0.943135	-0.738988	0.662549	0.631924	0.614493	0.572794	-0.706908	0.684365	-0.639216	-0.685814	0.563862	0.491336
0.632957	0.580194	-0.697438	0.641331	0.673258	0.571891	-0.651683	0.55809	0.578496	0.679047	-0.758305	0.521097	0.564692	-0.64707	-0.549711	0.613464	-0.663582	0.512514	-0.554308	-0.603642	-0.728165	-0.494266	0.656156	0.564745	0.63063	0.616137	-0.676978	0.531778	-0.639766	-0.642796	0.671723	0.581149
0.610178	0.636029	-0.687239	0.570167	0.617184	0.541234	-0.645564	0.601252	0.618807	0.733568	-0.665655	0.793373	0.566415	-0.54608	-0.58133	0.647998	-0.619413	0.597789	-0.613387	-0.526916	-0.709915	-0.733229	0.603094	0.628875	0.619335	0.665483	-0.60296	0.52476	-0.647681	-0.62419	0.616802	0.643101
0.574286	0.658733	-0.694153	0.623983	0.703494	0.596355	-0.663749	0.611342	0.606682	0.708514	-0.455821	0.68443	0.604202	-0.643335	-0.54898	0.514091	-0.651544	0.613223	-0.674516	-0.643107	-0.668538	-0.771036	0.640921	0.661255	0.651694	0.540366	-0.484235	0.686132	-0.580187	-0.688085	0.594673	0.537293
0.577643	0.704342	-0.697842	0.782464	0.707716	0.735456	-0.775037	0.629124	0.842183	0.590371	-0.690769	0.111464	0.49554	-0.725504	-0.536629	0.765839	-0.694167	0.684125	-0.768104	-0.484234	-0.0827709	-0.788172	0.520621	0.535443	0.54632	0.592551	-0.687652	0.697588	-0.678088	-0.665515	0.518037	0.786577
0.402699	0.764918	-0.903707	0.894607	0.59342	0.528228	-0.410991	0.539066	0.881211	0.946637	-0.613938	0.934823	0.425314	-0.841663	-0.687854	0.274618	-0.723482	0.295237	-0.453778	-0.692868	-0.978354	-0.527556	0.579163	0.798875	0.798987	0.0195255	-0.508717	0.790997	-0.760446	-0.50415	0.47713	0.595117
0.643237	0.521046	-0.667819	0.662775	0.603533	0.662402	-0.544272	0.633533	0.722034	0.728594	-0.851058	0.292963	0.7804	-0.555975	-0.665783	0.576137	-0.75797	0.570938	-0.647373	-0.607212	-0.833256	-0.484241	0.602158	0.683719	0.577149	0.620218	-0.571176	0.635112	-0.54061	-0.716812	0.571576	0.703067
0.575887	0.690867	-0.662964	0.482631	0.747602	0.747405	-0.600411	0.537379	0.499076	0.523088	-0.594472	0.745818	0.622781	-0.682763	-0.553489	0.762131	-0.520666	0.795476	-0.668275	-0.715931	-0.753797	-0.816422	0.726485	0.62508	0.785069	0.535299	-0.585017	0.608245	-0.603426	-0.716361	0.693421	0.460173
0.527546	0.68244	-0.722709	0.701475	0.612171	0.652132	-0.608834	0.606971	0.606904	0.51626	-0.612481	0.627099	0.673308	-0.619295	-0.571265	0.61925	-0.616564	0.559346	-0.637525	-0.715414	-0.783611	-0.683533	0.575753	0.706186	0.594962	0.717202	-0.681316	0.533223	-0.603868	-0.672296	0.590433	0.684718
0.505023	0.651339	-0.591427	0.719686	0.749815	0.5407	-0.633185	0.606936	0.58082	0.709118	-0.759371	0.713971	0.587562	-0.575806	-0.630748	0.594649	-0.534679	0.566926	-0.550679	-0.691484	-0.512464	-0.680968	0.666915	0.596581	0.664601	0.629032	-0.614879	0.613047	-0.537109	-0.613876	0.532623	0.711596
0.586693	0.541489	-0.600072	0.646789	0.704174	0.622847	-0.622497	0.543824	0.708136	0.629313	-0.696678	0.714397	0.690692	-0.590752	-0.624583	0.548546	-0.655653	0.542971	-0.562449	-0.572623	-0.691844	-0.654809	0.559074	0.573588	0.582882	0.643918	-0.59741	0.671921	-0.568688	-0.642497	0.644336	0.663742
0.542678	0.57384	-0.539683	0.596103	0.643574	0.596642	-0.610009	0.597183	0.60625	0.71142	-0.734472	0.67618	0.660272	-0.635911	-0.663957	0.581748	-0.562682	0.627902	-0.627055	-0.651852	-0.560529	-0.579494	0.510241	0.574462	0.58726	0.648158	-0.543618	0.618559	-0.615269	-0.655385	0.613241	0.625851
0.657772	0.661681	-0.769546	0.740551	0.60748	0.575692	-0.647275	0.544368	0.612344	0.723182	-0.761459	0.548758	0.53838	-0.640319	-0.620059	0.683925	-0.628457	0.543786	-0.683878	-0.644039	-0.762667	-0.599267	0.701267	0.621972	0.670096	0.559104	-0.581717	0.59546	-0.660086	-0.686515	0.605743	0.569403
0.625973	0.542415	-0.588658	0.68281	0.603774	0.527721	-0.524714	0.702741	0.654131	0.619102	-0.703243	0.703146	0.623405	-0.597772	-0.563351	0.661633	-0.59811	0.655875	-0.617525	-0.596208	-0.725842	-0.624993	0.667879	0.590524	0.651996	0.624196	-0.54499	0.704502	-0.63784	-0.567918	0.675755	0.631063
0.656731	0.627056	-0.450886	0.498931	0.68217	0.749083	-0.609461	0.512558	0.670826	0.571942	-0.626437	1.05174	0.740221	-0.652433	-0.524522	0.621878	-0.404154	0.524064	-0.724229	-0.652186	-0.829765	-0.681068	0.755725	0.646099	0.756748	0.621124	-0.653638	0.437973	-0.576609	-0.664263	0.699978	0.651451
0.554137	0.56229	-0.55299	0.623731	0.673522	0.544473	-0.471941	0.622917	0.456799	0.726454	-0.754282	0.761083	0.535865	-0.614127	-0.620264	0.645052	-0.705837	0.7163	-0.70828	-0.489757	-0.825487	-0.564617	0.665093	0.734928	0.50592	0.575509	-0.708619	0.659613	-0.653097	-0.644912	0.684675	0.514553
0.649358	0.651838	-0.671671	0.600853	0.640825	0.601163	-0.514613	0.554856	0.63076	0.684255	-0.769815	0.67364	0.562033	-0.626468	-0.620258	0.703344	-0.599762	0.680027	-0.544908	-0.582092	-0.614613	-0.628327	0.692181	0.438458	0.62841	0.615923	-0.639393	0.594985	-0.7451	-0.526623	0.547763	0.653701
0.462547	0.722388	-0.708626	0.855154	0.433798	0.743113	-0.484228	0.693921	0.615316	0.913296	-0.813703	0.443056	0.402714	-0.585888	-0.63382	0.664135	-0.645569	0.731989	-0.678941	-0.794362	-0.525673	-0.79993	0.70535	0.473619	0.457067	0.590056	-0.640664	0.470662	-0.526573	-0.716474	0.665711	0.723668
0.556996	0.623446	-0.64792	0.619778	0.739622	0.481414	-0.570113	0.539614	0.680038	0.818992	-0.6035	0.755317	0.584613	-0.586382	-0.635989	0.572119	-0.535837	0.493803	-0.65025	-0.535749	-0.817973	-0.648435	0.674108	0.552979	0.554233	0.718992	-0.542388	0.598894	-0.597085	-0.54142	0.685623	0.589242
0.483375	0.610673	-0.629731	0.751292	0.609657	0.576703	-0.599845	0.563186	0.69904	0.609804	-0.715715	0.83508	0.587256	-0.585923	-0.515773	0.594923	-0.564854	0.605391	-0.522332	-0.66351	-0.753849	-0.601032	0.560578	0.553181	0.688491	0.711086	-0.592084	0.580027	-0.491132	-0.643148	0.702971	0.529898
0.572737	0.602866	-0.531866	0.756676	0.598754	0.634794	-0.631821	0.580155	0.674418	0.693045	-0.736023	0.767053	0.700877	-0.610123	-0.627837	0.618589	-0.696468	0.6098	-0.547743	-0.653684	-0.629457	-0.499685	0.64727	0.56802	0.566042	0.683148	-0.616511	0.708442	-0.642325	-0.608877	0.707085	0.647798
0.699637	0.495269	-0.479385	0.667366	0.594073	0.464223	-0.661018	0.611527	0.646739	0.825681	-0.853323	0.714846	0.625402	-0.522348	-0.687023	0.558814	-0.618099	0.677502	-0.619599	-0.516677	-0.786584	-0.511706	0.53692	0.681024	0.600512	0.621449	-0.552755	0.668595	-0.667057	-0.683793	0.636983	0.497258
0.609413	0.574847	-0.622795	0.661695	0.739903	0.55249	-0.605059	0.676078	0.52917	0.618949	-0.531709	0.693674	0.558948	-0.578405	-0.642522	0.682179	-0.617895	0.59889	-0.497977	-0.676466	-0.835645	-0.452902	0.544974	0.643181	0.536157	0.694395	-0.499846	0.66338	-0.671439	-0.537475	0.681487	0.692849
0.576128	0.671454	-0.602519	0.546983	0.649075	0.616717	-0.576113	0.691341	0.614741	0.812215	-0.631243	0.423708	0.749083	-0.654978	-0.695973	0.726517	-0.591825	0.616107	-0.524944	-0.545179	-0.739273	-0.665178	0.527929	0.596296	0.651806	0.573956	-0.501633	0.626637	-0.575782	-0.660026	0.628361	0.605887
0.643295	0.62048	-0.578975	0.68485	0.503496	0.561755	-0.527642	0.567928	0.639093	0.743886	-0.607613	0.803823	0.593214	-0.632162	-0.60853	0.650015	-0.524134	0.573481	-0.641181	-0.568069	-0.552023	-0.762997	0.537506	0.615887	0.537902	0.692475	-0.607422	0.508816	-0.643204	-0.527726	0.596569	0.642929
0.644613	0.465846	-0.76734	0.665811	0.740411	0.726197	-0.67056	0.667338	0.648794	0.529581	-0.657248	0.644773	0.581426	-0.727074	-0.614996	0.526842	-0.540069	0.491321	-0.519249	-0.66961	-0.832392	-0.816163	0.400918	0.643723	0.750838	0.627631	-0.698106	0.556003	-0.669971	-0.703161	0.394772	0.591014
0.677682	0.625294	-0.737962	0.585084	0.560088	0.533391	-0.810583	0.615586	0.742106	0.716591	-0.687936	0.321991	0.488907	-0.501888	-0.729054	0.552721	-0.535842	0.653619	-0.748968	-0.589678	-0.573555	-0.878259	0.672619	0.757345	0.78996	0.740203	-0.445154	0.621441	-0.745618	-0.807657	0.619293	0.427678
0.428181	0.744324	-0.652611	0.603056	0.638529	0.841674	-0.734618	0.902057	0.878219	0.0588354	-0.585752	0.691185	0.559187	-0.816017	-0.80048	0.395913	-0.551117	0.714719	-0.36403	-0.738888	-0.0459827	-0.506734	0.570972	0.651364	0.640757	0.629313	-0.939066	0.470055	-0.60657	-0.791454	0.153307	0.662257
0.596383	0.6579	-0.605943	0.612137	0.602489	0.616731	-0.578052	0.63639	0.675192	0.688826	-0.701931	0.742926	0.603023	-0.678895	-0.58802	0.552168	-0.584158	0.656948	-0.623547	-0.553891	-0.729609	-0.658892	0.580528	0.623963	0.596092	0.713889	-0.516886	0.648437	-0.657666	-0.592437	0.677903	0.656675
0.622346	0.588552	-0.71	0.6063	0.627519	0.715448	-0.726442	0.556602	0.607633	0.633234	-0.757677	0.837565	0.531533	-0.69029	-0.615222	0.607738	-0.679104	0.535655	-0.507016	-0.685875	-0.7741	-0.617432	0.514157	0.497877	0.588238	0.787551	-0.708059	0.678529	-0.682936	-0.657586	0.715765	0.661084
0.631071	0.603922	-0.60095	0.633827	0.676008	0.549472	-0.578714	0.650495	0.71775	0.592793	-0.657253	0.634566	0.600048	-0.603703	-0.597253	0.546007	-0.590828	0.662238	-0.587099	-0.608656	-0.673305	-0.5761	0.569439	0.589513	0.685704	0.668278	-0.654171	0.635421	-0.599791	-0.64037	0.66008	0.559821
0.559453	0.651406	-0.616427	0.596837	0.60406	0.606998	-0.626555	0.554584	0.655815	0.702056	-0.693452	0.61643	0.592708	-0.550891	-0.629194	0.588977	-0.666648	0.58733	-0.620924	-0.560857	-0.727657	-0.576678	0.642575	0.627536	0.634524	0.566599	-0.577151	0.644485	-0.63728	-0.663882	0.59691	0.5933
0.583018	0.53909	-0.590389	0.670293	0.618759	0.560187	-0.583481	0.621003	0.683826	0.80117	-0.706938	0.725915	0.675989	-0.642569	-0.538333	0.566105	-0.611132	0.593822	-0.574888	-0.547019	-0.647395	-0.71369	0.666394	0.589209	0.636785	0.693176	-0.702417	0.671231	-0.550361	-0.562193	0.590315	0.549524
0.630598	0.598698	-0.601059	0.587403	0.658278	0.542008	-0.581421	0.559377	0.633223	0.648434	-0.643618	0.801126	0.657015	-0.609465	-0.595166	0.557848	-0.63455	0.618998	-0.578245	-0.524269	-0.739792	-0.598972	0.584188	0.588933	0.62436	0.572821	-0.596396	0.57799	-0.627206	-0.534535	0.576143	0.601261
0.651342	0.666336	-0.513649	0.621913	0.601333	0.5618	-0.641641	0.550935	0.613551	0.758836	-0.696147	0.756818	0.64519	-0.671392	-0.648274	0.555823	-0.490002	0.613829	-0.664694	-0.662988	-0.690979	-0.696923	0.51955	0.640006	0.659139	0.646914	-0.570053	0.55832	-0.570974	-0.526268	0.532595	0.547426
0.550066	0.575646	-0.627579	0.67093	0.62641	0.593633	-0.603728	0.662069	0.606226	0.775416	-0.663746	0.794417	0.584225	-0.541457	-0.572715	0.568362	-0.68072	0.602402	-0.584046	-0.607922	-0.662603	-0.584689	0.616257	0.535325	0.611988	0.62548	-0.630897	0.573677	-0.611331	-0.563927	0.673892	0.612206
0.663196	0.620776	-0.56229	0.72637	0.676671	0.596979	-0.498986	0.582642	0.59122	0.538201	-0.72108	0.878728	0.597133	-0.542573	-0.536122	0.535741	-0.605372	0.590173	-0.620073	-0.638933	-0.763816	-0.639878	0.597681	0.566134	0.612667	0.68165	-0.653113	0.664968	-0.551369	-0.643366	0.596541	0.574837
0.708584	0.707565	-0.519379	0.603277	0.540217	0.622737	-0.578755	0.569174	0.71386	0.756166	-0.601859	0.690116	0.743222	-0.629576	-0.565402	0.724649	-0.572572	0.712919	-0.553118	-0.585214	-0.765519	-0.525159	0.573574	0.647889	0.630605	0.660778	-0.681681	0.654453	-0.562806	-0.529182	0.638287	0.667666
0.650096	0.554991	-0.649383	0.522058	0.663594	0.626502	-0.635921	0.676447	0.603925	0.726969	-0.452724	0.531813	0.593225	-0.529876	-0.57293	0.67461	-0.696224	0.725701	-0.632503	-0.564074	-0.635298	-0.645793	0.540702	0.456067	0.692131	0.771859	-0.432705	0.66837	-0.539516	-0.699446	0.56752	0.504665
0.503952	0.638907	-0.6118	0.690533	0.610899	0.640347	-0.552753	0.674977	0.632668	0.61815	-0.657074	0.735782	0.65803	-0.660461	-0.631898	0.677771	-0.541647	0.725669	-0.687814	-0.680758	-0.613682	-0.591844	0.648457	0.691436	0.600401	0.586909	-0.525366	0.660489	-0.575693	-0.581404	0.522937	0.575849
0.560187	0.599489	-0.660317	0.612073	0.668541	0.560918	-0.532295	0.677837	0.618714	0.668741	-0.667056	0.842018	0.516502	-0.631924	-0.566703	0.658505	-0.597287	0.554432	-0.634191	-0.53904	-0.8613	-0.467925	0.70245	0.645094	0.553056	0.590765	-0.626713	0.575262	-0.517778	-0.587757	0.584407	0.588812
0.621425	0.582637	-0.647136	0.477267	0.615098	0.581244	-0.62145	0.653445	0.568095	0.80206	-0.754937	0.863379	0.697476	-0.501667	-0.592242	0.557582	-0.550047	0.539742	-0.638078	-0.480387	-0.66372	-0.813235	0.6539	0.493221	0.660989	0.673073	-0.665998	0.538051	-0.663984	-0.67819	0.584776	0.579635
0.667304	0.613041	-0.597281	0.648927	0.583657	0.5206	-0.592187	0.621075	0.573911	0.76237	-0.566475	0.722782	0.638869	-0.670933	-0.602593	0.646348	-0.572208	0.507105	-0.590991	-0.544891	-0.723818	-0.679599	0.65174	0.541715	0.636293	0.432777	-0.616649	0.673323	-0.586077	-0.578419	0.713503	0.542892
0.640772	0.571252	-0.734274	0.598909	0.322785	0.608249	-0.839976	0.665764	0.839337	0.810222	-0.884168	0.696477	0.709	-0.825146	-0.634775	0.855803	-0.617641	0.753794	-0.465931	-0.770639	-0.286175	-0.206674	0.614337	0.778679	0.672522	0.967618	-0.681311	0.84654	-0.358126	-0.518283	0.418797	0.720688
0.584274	0.567071	-0.586576	0.712207	0.688274	0.571215	-0.509434	0.621007	0.707658	0.727216	-0.622541	0.791968	0.650621	-0.571689	-0.645664	0.588172	-0.560039	0.662317	-0.589064	-0.609087	-0.718168	-0.581002	0.629001	0.658226	0.591084	0.650824	-0.607147	0.587879	-0.517264	-0.551998	0.539364	0.548289
0.634899	0.531303	-0.62016	0.547891	0.501724	0.664096	-0.557798	0.692598	0.461078	0.675459	-0.721689	0.927327	0.716083	-0.681636	-0.622548	0.549403	-0.509698	0.698776	-0.702592	-0.500892	-0.617242	-0.698114	0.589624	0.539499	0.7012	0.546725	-0.650077	0.659897	-0.735622	-0.507452	0.605823	0.715822
0.584965	0.731924	-0.668295	0.837537	0.245298	0.636164	-0.566431	0.572563	0.195563	0.611994	-0.410633	0.378415	0.62188	-0.447511	-0.84223	0.758143	-0.581527	0.631842	-0.772503	-0.932412	-0.597354	-0.189301	0.705509	0.437722	0.329813	0.508913	-0.587988	0.338809	-0.773472	-0.750702	0.524306	0.846007
0.62707	0.650391	-0.639611	0.671006	0.675241	0.671847	-0.621249	0.623277	0.643935	0.64924	-0.608065	0.653892	0.646398	-0.578988	-0.580883	0.566904	-0.668383	0.604155	-0.591774	-0.621039	-0.789544	-0.708402	0.559276	0.569319	0.564117	0.720736	-0.626489	0.632324	-0.618907	-0.618874	0.669297	0.601901
0.543051	0.710298	-0.440851	0.775716	0.579606	0.682249	-0.542554	0.743033	0.471743	0.723426	-0.790415	0.567949	0.759446	-0.714227	-0.667039	0.651836	-0.722213	0.586773	-0.645652	-0.531026	-0.833982	-0.479005	0.55923	0.751324	0.637448	0.629561	-0.581592	0.52965	-0.667729	-0.72345	0.755884	0.55229
0.676227	0.600318	-0.660169	0.665231	0.705982	0.580114	-0.537742	0.51148	0.67415	0.532751	-0.705525	0.827227	0.548108	-0.657921	-0.601669	0.527071	-0.574971	0.666862	-0.696273	-0.641852	-0.778814	-0.650898	0.683504	0.615829	0.603615	0.702826	-0.681675	0.536696	-0.679283	-0.518014	0.655161	0.554859
0.600316	0.708433	-0.612635	0.733126	0.654827	0.64495	-0.602462	0.635633	0.442508	0.835268	-0.680171	0.861396	0.675589	-0.597146	-0.537151	0.649945	-0.757612	0.509903	-0.620879	-0.527928	-0.665324	-0.493019	0.595247	0.541403	0.690451	0.562087	-0.693006	0.737866	-0.636486	-0.558673	0.527778	0.681049
0.631982	0.605597	-0.743761	0.639568	0.659162	0.525626	-0.47978	0.662635	0.762213	0.71613	-0.786718	0.798024	0.72115	-0.724676	-0.489987	0.573652	-0.426429	0.555315	-0.422338	-0.690968	-0.397556	-0.775703	0.62111	0.583967	0.559014	0.730883	-0.713266	0.677629	-0.519539	-0.568481	0.63124	0.518332
0.554067	0.763391	-0.531627	0.588251	0.299693	0.646802	-0.488898	0.620472	0.336102	0.973942	-0.932232	0.723893	0.603706	-0.567575	-0.74531	0.617616	-0.640169	0.720567	-0.64259	-0.626379	-0.617343	-0.735809	0.774509	0.665496	0.492142	0.846485	-0.591405	0.805817	-0.481754	-0.592385	0.509593	0.650075
0.723757	0.517095	-0.868228	0.454349	0.495239	0.686614	-0.686095	0.594579	0.592818	0.326152	-1.02336	0.694106	0.591117	-0.801368	-0.748107	0.566257	-0.677577	0.635547	-0.536865	-0.492296	-0.687373	-0.67559	0.649292	0.583633	0.867203	0.505933	-0.648506	0.633928	-0.714793	-0.727001	0.842894	0.590394
0.595536	0.616838	-0.608363	0.599997	0.740341	0.617923	-0.642712	0.618302	0.70128	0.624167	-0.620454	0.897989	0.653566	-0.626689	-0.538473	0.594729	-0.551097	0.658379	-0.632083	-0.652222	-0.785086	-0.537701	0.599189	0.679033	0.62883	0.709131	-0.503855	0.613458	-0.635892	-0.558576	0.601418	0.525431
0.681083	0.594127	-0.6436	0.597804	0.601897	0.650897	-0.673208	0.642398	0.541496	0.660882	-0.715061	0.560965	0.690016	-0.566854	-0.598532	0.6406	-0.683057	0.631705	-0.530184	-0.587361	-0.797596	-0.552006	0.567437	0.565119	0.519434	0.593468	-0.681204	0.621511	-0.563345	-0.657471	0.643301	0.686907
0.599248	0.817178	-0.778536	0.849051	0.381845	0.393066	-0.741867	0.742017	-0.265252	0.293216	-0.481641	1.23604	0.806626	-0.495534	-0.879871	0.552614	-0.722757	0.639045	-0.768871	-0.198359	0.203263	-0.373758	0.334945	0.901123	0.970491	0.986318	-0.787476	0.548669	-0.666828	-0.56967	0.897471	0.73608
0.677371	0.540741	-0.617	0.680431	0.666026	0.51924	-0.610252	0.679282	0.565268	0.685165	-0.666216	0.626233	0.642151	-0.572066	-0.639784	0.613735	-0.698327	0.585794	-0.538999	-0.66493	-0.849864	-0.555697	0.659692	0.611851	0.642095	0.625198	-0.572878	0.558953	-0.655405	-0.52843	0.664096	0.568368
0.563273	0.55129	-0.609262	0.691297	0.569622	0.631125	-0.6126	0.565196	0.659999	0.743696	-0.718207	0.584369	0.617377	-0.526506	-0.570894	0.552458	-0.55948	0.534023	-0.643159	-0.596368	-0.617476	-0.631381	0.665556	0.613635	0.597079	0.691892	-0.611676	0.617274	-0.623674	-0.650593	0.638898	0.624111
0.68146	0.664711	-0.49611	0.668906	0.659197	0.671238	-0.59683	0.573964	0.451906	0.732895	-0.807086	0.951033	0.632427	-0.589944	-0.585633	0.542833	-0.746508	0.602062	-0.512015	-0.649696	-0.790219	-0.769611	0.67078	0.615441	0.68322	0.650133	-0.701647	0.623192	-0.720881	-0.540537	0.576431	0.734212
0.641716	0.592256	-0.699189	0.505184	0.575857	0.69308	-0.758113	0.645117	0.539374	0.402618	-0.88342	0.656797	0.687001	-0.708054	-0.687485	0.640775	-0.622013	0.652431	-0.485876	-0.557221	-0.851102	-0.716008	0.60873	0.660465	0.647432	0.411924	-0.648965	0.558567	-0.718518	-0.462317	0.696816	0.620538
0.608102	0.691195	-0.824482	0.612102	0.869703	0.536521	-0.459547	0.61418	0.772648	0.54754	-0.799199	0.740785	0.600233	-0.731677	-0.716572	0.583452	-0.714545	0.571332	-0.623996	-0.63174	-0.79105	-0.744713	0.748496	0.421529	0.600185	0.617591	-0.580248	0.742375	-0.589145	-0.756157	0.605048	0.527305
0.556062	0.607592	-0.659206	0.671868	0.590995	0.745705	-0.697179	0.42899	0.727309	0.762998	-0.771647	0.805874	0.657137	-0.698092	-0.557366	0.608701	-0.628917	0.597534	-0.638297	-0.644734	-0.70169	-0.410797	0.683906	0.638619	0.498859	0.598158	-0.683572	0.662475	-0.61709	-0.56367	0.577804	0.596073
0.532204	0.702192	-0.668445	0.668612	0.579503	0.587739	-0.566574	0.610027	0.617512	0.672973	-0.645599	0.860886	0.624316	-0.677694	-0.560784	0.67425	-0.734461	0.521647	-0.656766	-0.688875	-0.673823	-0.541856	0.650959	0.711385	0.65152	0.619599	-0.534925	0.556646	-0.568266	-0.604217	0.622276	0.574759
0.543816	0.651746	-0.581356	0.719795	0.680758	0.631967	-0.638815	0.578472	0.580316	0.607924	-0.722458	0.763195	0.608594	-0.624385	-0.628155	0.561935	-0.65976	0.566339	-0.674272	-0.554621	-0.760189	-0.719337	0.554724	0.507834	0.644051	0.635265	-0.579024	0.533337	-0.579098	-0.568506	0.59678	0.647758
0.729184	0.706345	-0.496423	0.652511	0.696135	0.7318	-0.638648	0.645889	0.539756	0.662764	-0.643283	1.06012	0.576793	-0.613149	-0.518989	0.55911	-0.708832	0.57487	-0.510358	-0.555013	-0.89617	-0.579981	0.552387	0.571003	0.610489	0.774898	-0.702619	0.650113	-0.688233	-0.568608	0.514944	0.67268
0.763893	0.612332	-0.715589	0.775563	0.569842	0.61127	-0.71433	0.776703	0.574093	0.307155	-0.550442	0.447964	0.626196	-0.663071	-0.68859	0.742221	-0.620985	0.768706	-0.754693	-0.878672	-0.32982	-0.629677	0.506953	0.529324	0.721951	0.547083	-0.707725	0.784394	-0.586371	-0.49219	0.755528	0.538686
0.726792	0.583796	-0.481629	0.626636	0.652733	0.52288	-0.566641	0.680298	0.649311	0.678937	-0.73539	0.598013	0.587485	-0.579562	-0.699262	0.604836	-0.665847	0.539694	-0.634935	-0.535834	-0.818863	-0.52765	0.567683	0.67191	0.552277	0.699058	-0.704857	0.618128	-0.638427	-0.608472	0.680248	0.60453
0.623411	0.756634	-0.602816	0.299274	0.541153	0.66495	-0.513109	0.631196	0.556711	0.588321	-0.241953	0.763742	0.663606	-0.386424	-0.544203	0.724894	-0.706706	0.663273	-0.667202	-0.491901	-0.453084	-0.676319	0.662868	0.722194	0.66274	0.601462	-0.6725	0.647501	-0.805433	-0.668572	0.669942	0.659891
0.52996	0.520155	-0.501482	0.666069	0.718998	0.632664	-0.598051	0.558529	0.68672	0.726246	-0.597113	0.826369	0.56526	-0.610842	-0.525631	0.663564	-0.577515	0.537214	-0.636142	-0.666283	-0.666232	-0.659619	0.620054	0.565038	0.626879	0.580864	-0.62179	0.619456	-0.688209	-0.649521	0.536663	0.565074
0.650316	0.583567	-0.623922	0.590244	0.601363	0.543133	-0.630033	0.531918	0.619998	0.699015	-0.720967	0.762801	0.585484	-0.65925	-0.636664	0.642012	-0.677124	0.614488	-0.558713	-0.53421	-0.707603	-0.628939	0.657853	0.683013	0.593991	0.652519	-0.590154	0.622496	-0.610644	-0.558362	0.545005	0.643944
0.664067	0.550494	-0.522569	0.628192	0.478596	0.635813	-0.558704	0.648819	0.73616	0.609501	-0.732848	0.751937	0.576453	-0.673377	-0.633381	0.575939	-0.630659	0.600688	-0.606983	-0.516157	-0.641495	-0.663052	0.57875	0.644686	0.677373	0.686891	-0.570965	0.614	-0.648258	-0.606775	0.646613	0.66927
0.649425	0.565923	-0.657726	0.64528	0.578601	0.597865	-0.706202	0.590583	0.510392	0.668234	-0.602959	0.636659	0.670944	-0.628696	-0.618608	0.618284	-0.613573	0.609699	-0.677977	-0.567964	-0.728806	-0.611591	0.720331	0.645566	0.570989	0.664315	-0.677311	0.622921	-0.608357	-0.649921	0.581156	0.707405
0.547033	0.581786	-0.626544	0.700953	0.669689	0.617842	-0.605871	0.581401	0.600441	0.625375	-0.77612	0.849384	0.667167	-0.682894	-0.534712	0.516479	-0.532929	0.710275	-0.591161	-0.519288	-0.678779	-0.722259	0.679612	0.559915	0.531291	0.604333	-0.651704	0.564973	-0.531621	-0.585307	0.711193	0.584872
0.680599	0.493855	-0.679065	0.86952	0.746645	0.735934	-0.508334	0.718612	0.465061	0.670534	-0.509447	0.232332	0.456692	-0.782198	-0.577611	0.428753	-0.831079	0.766944	-0.771003	-0.712377	-0.714047	-0.806722	0.635052	0.658174	0.525803	0.532064	-0.64925	0.677851	-0.601772	-0.508546	0.734153	0.693364
0.601432	0.536377	-0.65151	0.673573	0.659237	0.547267	-0.604254	0.609774	0.539141	0.659719	-0.609856	0.739504	0.586778	-0.669499	-0.638454	0.621574	-0.694428	0.56006	-0.511211	-0.618688	-0.749034	-0.594691	0.601158	0.577894	0.668026	0.658783	-0.560272	0.562044	-0.544148	-0.653352	0.597409	0.569992
0.655453	0.545725	-0.691141	0.655776	0.609702	0.47147	-0.469292	0.54677	0.550747	0.804588	-0.713856	0.878146	0.745616	-0.59662	-0.639598	0.623556	-0.714269	0.677627	-0.584352	-0.552976	-0.908439	-0.550055	0.687914	0.59788	0.527557	0.712188	-0.522599	0.618839	-0.704063	-0.517831	0.488294	0.637466
